0 29 0.997111
0 1095 0.00288935
2 2 1
3 3 1
4 4 1
5 5 0.953977
5 51 0.0387566
5 464 0.00726685
6 6 0.970588
6 3085 0.0294118
7 7 0.875
7 1583 0.125
8 8 0.00820966
8 29 0.952952
8 44 0.038838
9 9 0.216667
9 31 0.783333
10 10 1
11 11 1
12 12 0.139665
12 17 0.139665
12 32 0.094041
12 33 0.094041
12 110 0.229981
12 112 0.226257
12 687 0.0214153
12 961 0.0232775
12 973 0.0232775
12 1820 0.00837989
13 13 0.317073
13 1174 0.536585
13 4739 0.0487805
13 5485 0.0243902
13 5572 0.0243902
13 6501 0.0243902
13 7483 0.0243902
14 14 1
15 15 0.070922
15 742 0.91844
15 1989 0.0035461
15 3640 0.0035461
15 4461 0.0035461
16 16 1
17 18 1
18 19 1
19 20 1
20 21 1
21 22 1
22 23 1
23 24 0.197368
23 76 0.802632
24 25 1
25 26 1
26 27 1
27 28 1
28 30 1
29 34 0.916616
29 75 0.0177805
29 360 0.0484365
29 1818 0.0122624
29 3444 0.00367872
29 5323 0.00122624
30 35 1
31 36 1
32 37 1
33 38 0.71875
33 2328 0.09375
33 2643 0.0625
33 4515 0.125
34 39 1
35 40 1
36 41 1
37 42 1
38 43 1
39 45 0.966216
39 1128 0.0320946
39 6882 0.00168919
40 46 1
41 47 1
42 48 1
43 49 1
44 50 1
45 52 1
46 53 1
47 54 1
48 55 1
49 56 1
50 57 0.990758
50 2978 0.00369686
50 5356 0.00184843
50 6070 0.00369686
51 58 1
52 59 0.732143
52 399 0.169643
52 2798 0.0892857
52 6695 0.00892857
53 60 1
54 61 1
55 62 1
56 63 1
57 64 1
58 65 1
59 66 1
60 67 1
61 68 1
62 69 1
63 70 1
64 71 0.8
64 6281 0.2
65 72 1
66 73 1
67 74 1
68 8 5.49903e-05
68 34 0.00262452
68 77 0.929083
68 360 0.00262453
68 1025 0.0131226
68 1242 0.044617
68 5049 0.00262453
68 5209 0.00262453
68 5587 0.00262453
69 78 1
70 79 1
71 80 1
72 81 1
73 82 1
74 83 1
75 84 0.878261
75 1697 0.0521739
75 1926 0.0695652
76 85 1
77 86 1
78 87 1
79 88 1
80 89 1
81 90 0.972973
81 4939 0.027027
82 91 0.2
82 521 0.8
83 92 1
84 93 1
85 94 1
86 95 0.995074
86 7474 0.00492611
87 96 1
88 97 1
89 98 1
90 99 1
91 100 1
92 101 1
93 102 1
94 103 1
95 104 0.914729
95 1581 0.0542636
95 7341 0.0310078
96 105 1
97 106 0.8
97 6132 0.2
98 107 1
99 108 0.966102
99 1176 0.0338983
100 109 1
101 111 1
102 113 1
103 114 1
104 115 0.625
104 3597 0.375
105 116 1
106 117 1
107 118 1
108 119 1
109 120 1
110 121 1
111 122 1
112 123 1
113 124 1
114 125 1
115 126 1
116 127 1
117 128 1
118 129 1
119 130 1
120 131 1
121 132 1
122 133 1
123 134 1
124 135 1
125 136 1
126 137 1
127 138 1
128 139 0.972789
128 4783 0.0204082
128 7841 0.00680272
129 140 1
130 141 1
131 142 1
132 143 1
133 144 1
134 145 1
135 146 1
136 147 1
137 148 0.714286
137 5026 0.285714
138 149 1
139 150 1
140 151 1
141 152 1
142 153 1
143 154 1
144 155 1
145 156 1
146 157 1
147 158 1
148 159 1
149 160 1
150 161 1
151 162 1
152 163 0.947368
152 6461 0.0526316
153 164 1
154 165 0.973262
154 3656 0.0106952
154 5022 0.0160428
155 166 1
156 167 1
157 168 1
158 169 1
159 170 0.857143
159 4553 0.142857
160 171 1
161 172 0.894737
161 5820 0.105263
162 173 1
163 174 1
164 175 1
165 176 1
166 177 1
167 178 1
168 179 1
169 180 0.857143
169 7107 0.142857
170 181 1
171 182 1
172 183 1
173 184 1
174 185 1
175 186 1
176 187 1
177 188 1
178 189 1
179 190 1
180 191 1
181 192 0.965517
181 6815 0.0344828
182 193 1
183 194 1
184 195 1
185 196 1
186 197 1
187 198 1
188 199 1
189 200 1
190 201 1
191 202 1
192 203 1
193 204 1
194 205 1
195 206 1
196 207 1
197 208 1
198 209 1
199 210 1
200 211 1
201 212 1
202 213 1
203 214 1
204 215 1
205 216 1
206 217 1
207 218 1
208 219 1
209 220 1
210 221 1
211 222 1
212 223 1
213 224 1
214 225 1
215 226 1
216 227 1
217 228 1
218 8 0.961538
218 5323 0.0384615
219 229 1
220 230 1
221 231 1
222 232 1
223 233 1
224 234 1
225 235 1
226 236 1
227 237 1
228 238 1
229 239 1
230 240 1
231 241 1
232 242 1
233 243 1
234 244 1
235 245 1
236 246 0.869565
236 1383 0.130435
237 247 1
238 248 0.954887
238 1604 0.0451128
239 249 1
240 250 1
241 251 1
242 252 1
243 253 0.982759
243 6594 0.0172414
244 254 1
245 255 1
246 256 1
247 257 0.97561
247 5828 0.0243902
248 258 1
249 259 0.65625
249 2417 0.09375
249 3203 0.21875
249 4353 0.03125
250 260 1
251 261 1
252 262 1
253 263 1
254 264 1
255 265 1
256 266 1
257 267 1
258 268 0.571429
258 2428 0.428571
259 269 1
260 270 1
261 271 1
262 272 1
263 273 1
264 274 1
265 275 1
266 276 1
267 277 1
268 278 1
269 279 1
270 280 1
271 281 0.9875
271 366 0.0125
272 282 0.294118
272 1229 0.0588235
272 3237 0.588235
272 6560 0.0588235
273 283 1
274 284 1
275 285 1
276 286 1
277 287 1
278 288 1
279 289 1
280 290 1
281 291 1
282 292 1
283 293 1
284 294 1
285 295 0.666667
285 4041 0.333333
286 296 1
287 297 1
288 298 1
289 299 1
290 300 1
291 301 1
292 302 1
293 303 1
294 304 1
295 305 1
296 306 1
297 307 0.769841
297 497 0.230159
298 308 1
299 309 1
300 310 1
301 311 1
302 312 0.990741
302 6265 0.00925926
303 313 1
304 314 1
305 315 0.654545
305 924 0.345455
306 316 1
307 317 1
308 318 1
309 319 1
310 320 0.914894
310 1883 0.0851064
311 321 1
312 322 1
313 323 1
314 324 1
315 325 1
316 326 1
317 327 1
318 328 1
319 329 1
320 330 1
321 331 1
322 332 1
323 333 1
324 334 1
325 335 1
326 336 1
327 337 1
328 338 0.984615
328 3387 0.0153846
329 339 1
330 340 1
331 341 1
332 342 1
333 343 1
334 344 1
335 345 1
336 346 1
337 347 1
338 348 1
339 349 1
340 350 1
341 351 1
342 352 0.782051
342 751 0.192308
342 2496 0.025641
343 353 1
344 354 1
345 355 1
346 356 1
347 357 1
348 358 1
349 359 1
350 361 1
351 362 1
352 363 1
353 364 1
354 365 1
355 367 1
356 368 1
357 369 1
358 370 1
359 371 1
360 372 1
361 373 1
362 374 1
363 375 1
364 376 0.5
364 3810 0.5
365 377 1
366 378 1
367 379 1
368 380 1
369 381 1
370 382 1
371 383 1
372 384 1
373 385 1
374 84 1
375 386 1
376 387 1
377 388 1
378 389 1
379 390 1
380 391 1
381 392 1
382 393 1
383 394 1
384 395 1
385 396 1
386 397 1
387 398 0.459459
387 1078 0.027027
387 1254 0.459459
387 4690 0.027027
387 7378 0.027027
388 400 1
389 401 1
390 402 1
391 403 1
392 404 1
393 405 1
394 406 1
395 407 1
396 408 1
397 409 1
398 410 1
399 411 1
400 412 1
401 413 1
402 414 1
403 415 0.9
403 4287 0.1
404 416 1
405 417 1
406 418 1
407 419 1
408 420 1
409 421 1
410 422 1
411 423 0.25
411 2160 0.638889
411 3407 0.0555556
411 5707 0.0277778
411 7221 0.0277778
412 424 1
413 425 1
414 426 1
415 427 1
416 428 1
417 429 1
418 430 1
419 431 1
420 432 1
421 433 1
422 434 1
423 435 0.75
423 4831 0.25
424 436 1
425 437 1
426 438 1
427 439 0.933333
427 768 0.0666667
428 440 1
429 441 1
430 442 1
431 443 1
432 444 1
433 445 1
434 446 1
435 447 1
436 448 1
437 449 1
438 352 0.977778
438 3839 0.0222222
439 450 1
440 451 1
441 452 1
442 453 1
443 454 1
444 455 1
445 456 1
446 457 1
447 458 1
448 459 1
449 460 1
450 461 0.428571
450 1055 0.228571
450 2833 0.228571
450 5268 0.0285714
450 5870 0.0285714
450 7223 0.0285714
450 7804 0.0285714
451 462 1
452 463 0.277778
452 3112 0.666667
452 7536 0.0555556
453 465 1
454 466 1
455 467 1
456 468 1
457 469 1
458 470 1
459 471 1
460 472 1
461 473 1
462 474 0.653846
462 2354 0.346154
463 475 1
464 476 1
465 477 1
466 478 1
467 479 1
468 480 1
469 481 1
470 482 1
471 483 0.828125
471 2342 0.03125
471 6414 0.140625
472 484 0.5
472 742 0.3
472 1984 0.1
472 4598 0.1
473 485 1
474 486 1
475 487 1
476 488 1
477 489 1
478 490 1
479 491 1
480 492 1
481 493 1
482 494 1
483 495 1
484 496 1
485 498 0.9375
485 7168 0.0625
486 499 1
487 500 1
488 501 0.75
488 4911 0.25
489 502 1
490 503 1
491 504 1
492 505 1
493 506 1
494 507 1
495 508 1
496 509 1
497 510 1
498 511 1
499 512 1
500 513 1
501 514 1
502 515 1
503 516 1
504 517 1
505 518 1
506 519 1
507 520 1
508 522 1
509 523 1
510 524 1
511 525 1
512 526 1
513 527 1
514 528 0.9
514 7420 0.1
515 529 1
516 530 0.916667
516 2018 0.0833333
517 531 1
518 532 1
519 533 0.983871
519 3891 0.016129
520 534 1
521 535 1
522 536 1
523 537 1
524 538 1
525 539 1
526 540 1
527 541 1
528 542 1
529 543 1
530 544 1
531 545 1
532 546 1
533 547 1
534 548 1
535 549 1
536 550 0.954545
536 4303 0.0454545
537 551 1
538 552 1
539 553 1
540 554 1
541 555 1
542 556 1
543 557 1
544 558 1
545 559 1
546 560 1
547 561 1
548 562 1
549 563 1
550 564 1
551 565 1
552 566 1
553 567 1
554 568 1
555 569 0.25
555 4315 0.25
555 5594 0.25
555 5909 0.25
556 570 1
557 571 0.777778
557 1388 0.222222
558 572 1
559 573 1
560 574 1
561 575 1
562 576 1
563 577 1
564 578 1
565 579 1
566 580 1
567 581 0.875
567 3494 0.125
568 582 1
569 583 1
570 584 1
571 585 1
572 586 0.6
572 5900 0.4
573 587 1
574 588 0.934426
574 3045 0.0245902
574 6069 0.0409836
575 589 1
576 590 1
577 591 1
578 592 1
579 593 1
580 594 1
581 595 1
582 596 1
583 597 1
584 598 0.4
584 1967 0.4
584 3697 0.2
585 599 1
586 600 1
587 601 1
588 602 1
589 603 1
590 604 1
591 605 1
592 606 1
593 607 1
594 608 1
595 609 1
596 610 1
597 611 1
598 612 1
599 613 1
600 614 1
601 615 1
602 616 1
603 34 0.0181818
603 617 0.945455
603 5875 0.0363636
604 618 1
605 619 1
606 620 1
607 621 1
608 622 1
609 623 1
610 624 1
611 625 1
612 626 1
613 627 1
614 628 1
615 629 1
616 630 0.142857
616 4495 0.428571
616 5358 0.428571
617 631 1
618 632 0.666667
618 3571 0.333333
619 633 1
620 634 1
621 635 1
622 636 1
623 637 1
624 638 1
625 639 1
626 640 1
627 641 1
628 642 1
629 643 1
630 644 1
631 645 1
632 646 1
633 647 1
634 648 1
635 649 1
636 650 1
637 651 1
638 652 1
639 653 1
640 654 1
641 655 1
642 656 1
643 657 1
644 658 1
645 659 1
646 660 1
647 661 1
648 662 1
649 663 1
650 664 1
651 665 1
652 666 1
653 667 1
654 668 1
655 669 1
656 670 1
657 671 1
658 672 1
659 673 1
660 674 0.5
660 3036 0.333333
660 7353 0.166667
661 675 1
662 676 1
663 677 1
664 678 0.862069
664 3967 0.137931
665 679 1
666 680 1
667 681 1
668 682 1
669 683 1
670 684 1
671 685 1
672 686 1
673 688 0.909091
673 1715 0.0909091
674 689 1
675 690 1
676 691 1
677 692 0.984848
677 7219 0.0151515
678 693 1
679 694 1
680 695 1
681 696 1
682 697 1
683 698 1
684 699 1
685 700 0.6
685 4833 0.4
686 701 1
687 702 1
688 703 1
689 704 1
690 705 1
691 706 1
692 707 1
693 708 1
694 709 1
695 710 1
696 711 1
697 712 1
698 713 1
699 714 1
700 715 0.461538
700 1034 0.538462
701 716 0.871795
701 5469 0.0769231
701 6705 0.025641
701 7873 0.025641
702 717 1
703 718 1
704 719 1
705 720 1
706 721 1
707 722 1
708 723 1
709 724 0.75
709 1419 0.25
710 725 1
711 726 1
712 727 1
713 728 1
714 34 0.0222222
714 729 0.733333
714 2056 0.0444444
714 2804 0.2
715 730 0.933333
715 2497 0.0666667
716 731 1
717 732 1
718 733 1
719 734 1
720 735 1
721 736 1
722 737 1
723 738 1
724 739 1
725 740 1
726 741 1
727 743 1
728 744 1
729 745 1
730 746 0.526316
730 2992 0.157895
730 5484 0.263158
730 6726 0.0526316
731 747 0.190476
731 1535 0.666667
731 2327 0.142857
732 748 1
733 749 0.8
733 7365 0.2
734 750 1
735 752 1
736 753 1
737 754 1
738 755 1
739 756 1
740 757 1
741 758 1
742 759 0.166667
742 7756 0.833333
743 760 1
744 761 1
745 762 1
746 763 1
747 764 1
748 765 1
749 766 1
750 767 1
751 769 1
752 770 1
753 771 1
754 772 1
755 773 1
756 774 1
757 775 1
758 776 1
759 777 1
760 778 1
761 779 1
762 780 1
763 781 1
764 782 1
765 783 1
766 784 1
767 785 1
768 786 1
769 787 1
770 788 1
771 789 0.740741
771 1592 0.0617284
771 2207 0.123457
771 3064 0.0617284
771 4273 0.0123457
772 790 0.666667
772 5824 0.333333
773 791 1
774 792 1
775 793 1
776 794 1
777 795 1
778 796 0.864865
778 2735 0.0540541
778 3044 0.027027
778 5169 0.0540541
779 797 1
780 798 1
781 799 1
782 800 1
783 801 1
784 802 1
785 803 1
786 804 1
787 805 1
788 806 1
789 807 1
790 808 1
791 809 1
792 810 1
793 811 1
794 812 1
795 813 1
796 814 1
797 815 1
798 816 1
799 817 1
800 818 1
801 819 1
802 820 1
803 821 1
804 822 1
805 823 1
806 824 1
807 825 1
808 826 1
809 827 1
810 828 1
811 829 1
812 830 1
813 831 1
814 832 1
815 833 1
816 834 1
817 835 1
818 836 1
819 837 1
820 838 1
821 839 1
822 840 1
823 841 1
824 842 0.934783
824 5264 0.0652174
825 843 1
826 844 1
827 845 1
828 846 1
829 847 0.75
829 4948 0.25
830 848 1
831 849 1
832 850 1
833 851 1
834 852 1
835 853 1
836 854 0.142857
836 2677 0.857143
837 855 1
838 856 1
839 857 1
840 858 1
841 859 0.666667
841 7688 0.333333
842 860 1
843 861 1
844 862 1
845 863 1
846 864 1
847 865 1
848 866 1
849 867 1
850 868 1
851 869 1
852 870 1
853 871 1
854 872 1
855 873 1
856 874 1
857 875 1
858 876 1
859 877 1
860 878 1
861 879 1
862 880 1
863 881 1
864 882 1
865 883 1
866 884 1
867 885 0.954545
867 7086 0.0454545
868 886 1
869 887 1
870 888 1
871 889 1
872 890 1
873 891 1
874 892 1
875 893 1
876 894 1
877 895 0.5
877 4991 0.5
878 896 1
879 897 1
880 898 1
881 899 1
882 900 1
883 901 1
884 902 1
885 903 0.666667
885 1252 0.146667
885 2223 0.08
885 3726 0.0933333
885 6102 0.0133333
886 904 1
887 905 1
888 906 1
889 907 1
890 908 1
891 909 1
892 910 1
893 911 1
894 912 1
895 913 1
896 914 1
897 915 1
898 916 1
899 917 1
900 918 1
901 919 1
902 920 1
903 921 1
904 922 0.137931
904 985 0.0689655
904 1261 0.62069
904 1279 0.0344828
904 4434 0.137931
905 923 1
906 925 1
907 926 1
908 927 1
909 928 1
910 929 1
911 930 1
912 931 0.833333
912 1079 0.166667
913 932 0.866667
913 4932 0.133333
914 933 1
915 934 1
916 935 1
917 936 1
918 937 1
919 938 1
920 939 1
921 940 1
922 941 1
923 942 1
924 943 1
925 944 1
926 945 1
927 946 0.72561
927 1421 0.182927
927 2600 0.0914634
928 947 1
929 948 1
930 949 1
931 950 1
932 951 1
933 952 1
934 953 1
935 954 0.2
935 2730 0.6
935 7396 0.2
936 955 1
937 956 1
938 957 1
939 958 1
940 959 1
941 960 0.866667
941 4996 0.133333
942 962 1
943 963 1
944 964 1
945 965 1
946 966 1
947 967 1
948 968 1
949 969 1
950 970 1
951 971 1
952 972 1
953 974 1
954 975 1
955 976 1
956 977 1
957 978 1
958 979 1
959 980 1
960 981 0.961538
960 2683 0.0384615
961 982 1
962 983 1
963 984 1
964 986 1
965 987 1
966 988 1
967 989 1
968 990 1
969 991 1
970 992 1
971 993 1
972 994 0.9
972 7285 0.1
973 995 1
974 996 1
975 997 1
976 998 1
977 999 1
978 1000 1
979 1001 1
980 1002 1
981 1003 0.825
981 2301 0.175
982 1004 1
983 1005 1
984 1006 1
985 1007 1
986 1008 0.977273
986 6558 0.0227273
987 1009 1
988 1010 1
989 1011 1
990 1012 1
991 1013 1
992 1014 1
993 1015 1
994 1016 1
995 1017 1
996 1018 0.5
996 3614 0.5
997 1019 1
998 1020 1
999 1021 1
1000 1022 1
1001 1023 1
1002 1024 1
1003 1026 1
1004 1027 1
1005 1028 1
1006 1029 1
1007 1030 1
1008 1031 1
1009 1032 1
1010 1033 1
1011 1035 1
1012 1036 1
1013 1037 1
1014 1038 1
1015 1039 1
1016 1040 1
1017 1041 0.111111
1017 1611 0.666667
1017 5701 0.111111
1017 7922 0.111111
1018 1042 1
1019 1043 1
1020 1044 1
1021 1045 1
1022 1046 1
1023 1047 0.653846
1023 3473 0.346154
1024 1048 1
1025 1049 1
1026 1050 1
1027 1051 1
1028 1052 0.6
1028 1214 0.4
1029 1053 1
1030 1054 0.769231
1030 1728 0.230769
1031 1056 1
1032 1057 1
1033 1058 1
1034 1059 1
1035 1060 1
1036 1061 1
1037 1062 1
1038 1063 1
1039 1064 1
1040 1065 1
1041 1066 0.888889
1041 6016 0.111111
1042 1067 1
1043 1068 1
1044 1069 1
1045 1070 1
1046 1071 1
1047 1072 0.5
1047 2772 0.5
1048 1073 1
1049 1074 1
1050 1075 1
1051 1076 1
1052 1077 1
1053 1080 1
1054 1081 1
1055 1082 1
1056 1083 1
1057 1084 1
1058 1085 1
1059 1086 1
1060 1087 0.1875
1060 1358 0.625
1060 5089 0.03125
1060 6577 0.09375
1060 7843 0.03125
1060 7939 0.03125
1061 1088 1
1062 1089 1
1063 1090 1
1064 1091 1
1065 1092 1
1066 1093 1
1067 1094 1
1068 1095 0.921875
1068 3978 0.078125
1069 1096 0.877193
1069 3979 0.122807
1070 1097 1
1071 1098 1
1072 1099 1
1073 1100 1
1074 1101 1
1075 1102 1
1076 1103 1
1077 1104 1
1078 1105 0.666667
1078 4116 0.333333
1079 1106 1
1080 1107 0.285714
1080 2001 0.619048
1080 3238 0.0952381
1081 1108 1
1082 1109 1
1083 1110 0.5
1083 3266 0.5
1084 1111 1
1085 1112 1
1086 1113 1
1087 1114 1
1088 1115 1
1089 1116 1
1090 1117 1
1091 1118 1
1092 1119 1
1093 1120 1
1094 1121 1
1095 1122 1
1096 1123 1
1097 1124 1
1098 1125 1
1099 1126 1
1100 1127 1
1101 1129 1
1102 1130 1
1103 1131 1
1104 1132 1
1105 1133 1
1106 1134 1
1107 1135 1
1108 1136 1
1109 1137 1
1110 1138 1
1111 1139 0.181818
1111 1198 0.545455
1111 2415 0.272727
1112 1140 1
1113 1141 1
1114 1142 1
1115 1143 1
1116 1144 1
1117 1145 1
1118 1146 1
1119 1147 1
1120 1148 1
1121 1149 1
1122 1150 1
1123 1151 1
1124 1152 1
1125 1153 1
1126 1154 1
1127 1155 1
1128 1156 1
1129 1157 1
1130 1158 1
1131 1159 1
1132 1160 1
1133 1161 1
1134 1162 0.75
1134 6985 0.25
1135 1163 1
1136 1164 1
1137 1165 1
1138 1166 1
1139 1167 0.113208
1139 3821 0.867925
1139 7202 0.0188679
1140 1168 1
1141 1169 1
1142 1170 1
1143 1171 1
1144 1172 1
1145 1173 0.2
1145 1241 0.8
1146 1175 0.75
1146 3422 0.125
1146 4797 0.125
1147 1177 1
1148 1178 1
1149 1179 1
1150 1180 1
1151 1181 0.5
1151 3405 0.5
1152 1182 1
1153 1183 1
1154 1184 1
1155 1185 1
1156 1186 1
1157 1187 1
1158 1188 1
1159 1189 1
1160 1190 1
1161 1191 1
1162 1192 1
1163 1193 1
1164 1194 1
1165 1195 1
1166 1196 1
1167 1197 1
1168 1199 1
1169 1200 1
1170 1201 1
1171 1202 1
1172 1203 1
1173 1204 0.777778
1173 1605 0.111111
1173 2200 0.111111
1174 1205 1
1175 1206 1
1176 1207 1
1177 1208 1
1178 1209 1
1179 1210 1
1180 1211 1
1181 1212 1
1182 1213 1
1183 1215 1
1184 1216 1
1185 1217 0.933333
1185 6204 0.0666667
1186 1218 1
1187 1219 1
1188 1220 1
1189 1221 1
1190 1222 1
1191 1223 1
1192 1224 1
1193 1225 1
1194 1226 1
1195 1227 1
1196 1228 1
1197 167 1
1198 1229 1
1199 1230 0.909091
1199 7785 0.0909091
1200 1231 1
1201 1232 1
1202 1233 1
1203 1234 1
1204 1235 1
1205 1236 1
1206 1237 1
1207 1238 1
1208 1239 1
1209 1240 1
1210 51 1
1211 1243 1
1212 1244 1
1213 1245 1
1214 299 1
1215 1246 0.692308
1215 3382 0.0384615
1215 3719 0.0384615
1215 4217 0.0384615
1215 4281 0.0769231
1215 6309 0.115385
1216 1247 0.428571
1216 2080 0.571429
1217 1248 1
1218 1249 1
1219 1250 0.785714
1219 2961 0.214286
1220 1251 0.8
1220 1629 0.2
1221 1253 1
1222 1255 1
1223 1256 1
1224 1257 1
1225 1258 1
1226 1259 1
1227 1260 1
1228 1262 1
1229 1263 0.269231
1229 1590 0.653846
1229 7402 0.0769231
1230 1264 1
1231 1265 1
1232 1266 1
1233 1267 1
1234 1268 1
1235 1269 0.142857
1235 1746 0.571429
1235 4897 0.142857
1235 6067 0.142857
1236 1270 1
1237 1271 1
1238 1272 1
1239 1273 1
1240 1274 0.636364
1240 1767 0.363636
1241 1275 1
1242 1276 1
1243 1277 1
1244 1278 1
1245 1280 1
1246 1281 1
1247 1282 1
1248 1283 1
1249 1284 1
1250 1285 1
1251 1286 1
1252 1287 1
1253 1288 1
1254 1289 1
1255 1290 1
1256 1291 1
1257 1292 0.538462
1257 1314 0.179487
1257 1706 0.179487
1257 4385 0.102564
1258 1293 1
1259 1294 1
1260 1295 1
1261 1296 1
1262 1297 1
1263 1298 1
1264 1299 1
1265 1300 0.5
1265 5502 0.5
1266 1301 0.5
1266 6169 0.5
1267 1302 1
1268 1303 1
1269 1304 1
1270 1305 0.782609
1270 3055 0.0434783
1270 6557 0.0434783
1270 7909 0.0869565
1270 7930 0.0434783
1271 1306 1
1272 1307 1
1273 1308 1
1274 1309 1
1275 1310 1
1276 1311 1
1277 1312 1
1278 1313 1
1279 1315 1
1280 1316 1
1281 1317 1
1282 1318 1
1283 1319 1
1284 1320 1
1285 1321 0.944444
1285 6161 0.0555556
1286 1322 1
1287 1323 1
1288 1324 1
1289 1325 1
1290 1326 1
1291 1327 1
1292 1328 1
1293 1329 1
1294 1330 1
1295 1331 1
1296 1332 0.863636
1296 5895 0.136364
1297 1333 1
1298 1334 1
1299 1335 1
1300 1336 1
1301 1337 1
1302 1338 1
1303 1339 1
1304 1340 0.285714
1304 1768 0.47619
1304 1876 0.126984
1304 1998 0.111111
1305 1341 0.642857
1305 2970 0.357143
1306 1342 1
1307 1343 1
1308 1344 1
1309 1345 1
1310 1346 1
1311 1347 1
1312 1348 1
1313 1349 1
1314 1350 1
1315 1351 1
1316 1352 1
1317 1353 1
1318 1354 1
1319 1355 1
1320 1356 1
1321 1357 1
1322 1359 1
1323 1360 1
1324 1361 1
1325 1362 1
1326 1363 1
1327 1364 1
1328 1365 1
1329 1366 1
1330 1367 1
1331 1368 1
1332 1369 1
1333 1370 1
1334 1371 1
1335 1372 1
1336 1373 1
1337 1374 1
1338 1375 1
1339 1376 1
1340 1377 1
1341 1378 1
1342 1379 1
1343 1380 1
1344 1381 1
1345 1382 1
1346 1384 1
1347 1385 1
1348 1386 1
1349 1387 1
1350 1389 1
1351 1390 1
1352 1391 1
1353 1392 1
1354 1393 1
1355 1394 1
1356 1395 1
1357 1396 1
1358 1397 1
1359 1398 1
1360 1399 1
1361 1400 1
1362 1401 1
1363 1402 1
1364 1403 1
1365 1404 1
1366 1405 0.545455
1366 4469 0.454545
1367 1406 1
1368 1407 1
1369 1408 1
1370 1409 1
1371 1410 1
1372 1411 1
1373 1412 1
1374 1413 1
1375 1414 1
1376 1415 1
1377 1416 0.952381
1377 1921 0.047619
1378 1417 1
1379 1418 1
1380 1420 1
1381 1422 1
1382 1423 1
1383 1424 1
1384 1425 1
1385 1426 1
1386 1427 1
1387 1428 1
1388 1429 1
1389 1430 1
1390 1431 1
1391 1432 1
1392 1433 1
1393 1434 1
1394 1435 1
1395 1436 1
1396 1437 1
1397 1438 1
1398 1439 1
1399 1440 1
1400 1441 1
1401 1442 1
1402 1443 1
1403 1444 1
1404 1445 1
1405 1446 1
1406 1447 1
1407 1448 1
1408 1449 1
1409 1450 1
1410 1451 1
1411 1452 1
1412 1453 1
1413 1454 1
1414 1455 1
1415 1456 1
1416 1457 1
1417 1458 1
1418 1459 0.25
1418 3346 0.5
1418 5569 0.25
1419 1460 1
1420 1461 1
1421 1462 1
1422 1463 1
1423 1464 1
1424 1465 1
1425 1466 1
1426 1467 1
1427 1468 1
1428 1469 1
1429 1470 1
1430 1471 1
1431 1472 1
1432 1473 1
1433 1474 1
1434 1475 1
1435 1476 1
1436 1477 1
1437 1478 1
1438 1479 1
1439 1480 1
1440 1481 1
1441 1482 1
1442 1483 1
1443 1484 1
1444 1485 1
1445 1486 1
1446 1487 1
1447 1488 1
1448 1489 1
1449 1490 1
1450 1491 1
1451 1492 1
1452 1493 1
1453 1494 0.923077
1453 3510 0.0769231
1454 1495 1
1455 1496 1
1456 1497 1
1457 1498 1
1458 1499 1
1459 1500 1
1460 1501 1
1461 1502 1
1462 1503 1
1463 1504 1
1464 1505 1
1465 1506 1
1466 1507 1
1467 1508 1
1468 1509 1
1469 1510 1
1470 1511 1
1471 1512 0.166667
1471 4333 0.333333
1471 6476 0.5
1472 1513 1
1473 1514 1
1474 1515 1
1475 1516 1
1476 1517 1
1477 1518 1
1478 1519 1
1479 1520 1
1480 1521 1
1481 1522 1
1482 1523 1
1483 1524 1
1484 1525 1
1485 1526 1
1486 1527 1
1487 1528 1
1488 1529 1
1489 1530 1
1490 1531 1
1491 1532 1
1492 1533 0.4
1492 4288 0.6
1493 1534 1
1494 1536 1
1495 1537 1
1496 1538 1
1497 1539 1
1498 1540 1
1499 1541 1
1500 1542 1
1501 1543 1
1502 1544 1
1503 1545 1
1504 1546 1
1505 1547 1
1506 1548 1
1507 1549 1
1508 1550 1
1509 1551 1
1510 1552 1
1511 1553 1
1512 1554 1
1513 1555 1
1514 1556 1
1515 1557 1
1516 1558 1
1517 1559 1
1518 1560 1
1519 1561 1
1520 1562 1
1521 1563 1
1522 1564 1
1523 1565 1
1524 1566 1
1525 1567 1
1526 1568 1
1527 1569 1
1528 1570 1
1529 1571 1
1530 1572 1
1531 1573 1
1532 1574 1
1533 1575 1
1534 1576 0.625
1534 2784 0.375
1535 1577 1
1536 1578 1
1537 1579 1
1538 1580 1
1539 1582 1
1540 1584 1
1541 1585 1
1542 1586 1
1543 1587 1
1544 1588 1
1545 1589 1
1546 1591 1
1547 1593 1
1548 1594 1
1549 1595 1
1550 1596 1
1551 1597 1
1552 1598 1
1553 1599 1
1554 1600 1
1555 1601 1
1556 1602 1
1557 1603 1
1558 1606 0.285714
1558 3620 0.571429
1558 4931 0.107143
1558 6727 0.0357143
1559 1607 1
1560 1608 1
1561 1609 1
1562 1610 1
1563 1612 0.857143
1563 4301 0.142857
1564 1613 1
1565 1614 1
1566 1615 1
1567 1616 1
1568 1617 1
1569 1618 1
1570 1619 1
1571 1620 1
1572 1621 1
1573 1622 1
1574 1623 1
1575 1624 1
1576 1625 1
1577 1626 1
1578 1627 1
1579 1628 1
1580 1630 1
1581 1631 1
1582 1632 1
1583 1633 1
1584 1634 1
1585 1635 1
1586 1636 1
1587 1637 1
1588 1638 1
1589 1639 1
1590 1640 1
1591 1641 1
1592 1642 1
1593 1643 1
1594 1644 1
1595 1645 1
1596 1646 1
1597 1647 1
1598 1648 1
1599 1649 1
1600 1650 1
1601 1651 1
1602 1652 1
1603 1653 1
1604 1654 1
1605 1655 1
1606 1656 1
1607 1657 1
1608 1658 1
1609 1659 1
1610 1660 1
1611 1661 1
1612 1662 1
1613 1663 0.5
1613 5833 0.5
1614 1664 1
1615 1665 1
1616 1666 1
1617 1667 0.875
1617 6983 0.125
1618 1668 1
1619 1669 1
1620 1670 1
1621 1671 1
1622 29 0.0344828
1622 34 0.0344828
1622 1672 0.482759
1622 2413 0.413793
1622 7458 0.0344828
1623 1673 1
1624 1674 1
1625 1675 1
1626 1676 1
1627 1677 1
1628 1678 1
1629 1679 1
1630 1680 1
1631 1681 1
1632 1682 1
1633 1683 1
1634 1684 1
1635 1685 1
1636 1686 1
1637 1687 1
1638 1688 1
1639 1689 1
1640 1690 0.823529
1640 3073 0.0294118
1640 5966 0.147059
1641 1691 1
1642 1692 1
1643 1693 1
1644 1694 1
1645 1695 1
1646 1696 1
1647 1698 1
1648 1699 1
1649 1700 1
1650 1701 1
1651 1702 1
1652 1703 1
1653 1704 1
1654 1705 0.75
1654 5859 0.25
1655 1707 1
1656 1708 1
1657 1709 1
1658 1710 1
1659 1711 1
1660 1712 1
1661 1713 0.2
1661 1735 0.8
1662 1714 1
1663 1716 1
1664 1717 1
1665 1718 1
1666 1719 1
1667 1720 1
1668 1721 1
1669 1722 1
1670 1723 1
1671 1724 1
1672 1725 1
1673 1726 1
1674 1727 1
1675 1729 1
1676 1730 1
1677 1731 1
1678 1732 1
1679 1733 1
1680 1734 1
1681 1736 0.666667
1681 3352 0.333333
1682 1737 1
1683 1738 1
1684 1739 1
1685 1740 1
1686 1741 1
1687 1742 1
1688 1743 1
1689 1744 1
1690 1745 1
1691 1747 1
1692 1748 1
1693 1749 1
1694 1750 1
1695 1751 1
1696 1752 1
1697 1753 1
1698 1754 1
1699 1755 1
1700 1756 1
1701 1757 1
1702 1758 1
1703 1759 1
1704 1760 1
1705 1761 1
1706 1762 1
1707 1763 1
1708 1764 1
1709 1765 1
1710 1766 1
1711 1769 1
1712 1770 1
1713 1771 1
1714 29 0.285714
1714 1772 0.714286
1715 1773 1
1716 1774 1
1717 1775 1
1718 1776 1
1719 1777 1
1720 1778 1
1721 1779 1
1722 1780 1
1723 1781 1
1724 1782 1
1725 1783 1
1726 1784 1
1727 1785 1
1728 1786 1
1729 1787 1
1730 1788 1
1731 1789 1
1732 1790 1
1733 1791 1
1734 1792 1
1735 1793 1
1736 1794 1
1737 1795 1
1738 1796 1
1739 1797 1
1740 1798 1
1741 1799 1
1742 1800 1
1743 1801 1
1744 1802 1
1745 1803 1
1746 1804 1
1747 1805 1
1748 1806 1
1749 1807 1
1750 1808 1
1751 1809 1
1752 1810 1
1753 1811 1
1754 1812 1
1755 1813 1
1756 1814 1
1757 1815 1
1758 1816 1
1759 1817 1
1760 1819 1
1761 1821 1
1762 1822 1
1763 1823 1
1764 1824 1
1765 1825 1
1766 1826 1
1767 1827 1
1768 1828 1
1769 1829 1
1770 1830 1
1771 1831 1
1772 1832 1
1773 1833 1
1774 1834 1
1775 1835 0.461538
1775 2965 0.538462
1776 1836 1
1777 1837 1
1778 1838 1
1779 1839 1
1780 1840 1
1781 1841 1
1782 1842 1
1783 1843 1
1784 1844 1
1785 1845 1
1786 1846 1
1787 1847 0.8
1787 6852 0.2
1788 1848 1
1789 1849 1
1790 1850 1
1791 1851 1
1792 1852 1
1793 1853 1
1794 1854 1
1795 1855 1
1796 1856 1
1797 1857 1
1798 1858 1
1799 1859 1
1800 1860 1
1801 1861 1
1802 1862 1
1803 1863 1
1804 1864 1
1805 1865 1
1806 1866 1
1807 1867 0.947368
1807 3182 0.0526316
1808 1868 1
1809 1869 1
1810 1870 1
1811 1871 1
1812 1872 1
1813 1873 1
1814 1874 1
1815 1875 1
1816 1877 1
1817 1878 1
1818 1879 1
1819 1880 1
1820 1881 1
1821 1882 1
1822 1884 1
1823 1885 1
1824 1886 1
1825 1887 1
1826 1888 0.5
1826 6293 0.5
1827 1889 1
1828 1890 1
1829 1891 1
1830 1892 1
1831 1893 1
1832 1894 1
1833 1895 1
1834 1896 1
1835 1897 1
1836 1898 1
1837 1899 1
1838 1900 1
1839 1901 1
1840 1902 1
1841 1903 1
1842 1095 0.160517
1842 1904 0.839483
1843 1905 1
1844 1906 1
1845 1907 1
1846 1908 1
1847 1909 1
1848 1910 1
1849 1911 1
1850 1912 1
1851 1913 1
1852 1914 0.8125
1852 4727 0.0625
1852 5361 0.125
1853 1915 1
1854 1916 1
1855 1917 1
1856 1918 1
1857 1919 1
1858 1920 1
1859 1922 0.5
1859 7284 0.5
1860 1923 1
1861 1924 1
1862 1925 1
1863 1927 1
1864 1928 1
1865 1929 1
1866 1930 1
1867 1931 1
1868 1932 1
1869 1933 1
1870 1934 0.666667
1870 6578 0.333333
1871 1935 1
1872 1936 1
1873 1937 1
1874 1938 1
1875 1939 1
1876 1940 1
1877 1941 1
1878 1942 1
1879 1943 1
1880 1944 1
1881 1945 1
1882 1946 1
1883 1947 1
1884 1948 1
1885 1949 1
1886 1950 1
1887 1951 1
1888 1952 1
1889 1953 1
1890 1954 1
1891 1955 1
1892 1956 1
1893 1957 1
1894 1958 0.2
1894 2103 0.44
1894 2769 0.36
1895 1959 1
1896 1960 1
1897 1961 1
1898 1962 1
1899 1963 1
1900 1964 1
1901 1965 1
1902 1966 1
1903 1967 0.75
1903 5331 0.25
1904 1968 1
1905 1969 1
1906 1970 0.666667
1906 4583 0.333333
1907 1971 0.666667
1907 2610 0.333333
1908 1972 1
1909 1973 1
1910 1974 1
1911 1975 1
1912 1976 1
1913 1977 1
1914 1978 1
1915 1979 0.666667
1915 4168 0.333333
1916 1980 1
1917 1981 0.294118
1917 2373 0.647059
1917 3951 0.0588235
1918 464 0.4
1918 1982 0.6
1919 1983 1
1920 1985 1
1921 1986 1
1922 1987 1
1923 1988 1
1924 1990 1
1925 1991 1
1926 1992 1
1927 1993 1
1928 1994 1
1929 1995 1
1930 1996 1
1931 1997 1
1932 1999 1
1933 2000 1
1934 2002 1
1935 2003 1
1936 2004 1
1937 2005 1
1938 2006 1
1939 2007 1
1940 2008 1
1941 2009 0.666667
1941 3221 0.333333
1942 2010 1
1943 2011 1
1944 2012 1
1945 2013 1
1946 2014 1
1947 2015 1
1948 2016 1
1949 2017 1
1950 2019 1
1951 2020 1
1952 2021 1
1953 2022 1
1954 2023 1
1955 2024 0.666667
1955 5147 0.333333
1956 2025 1
1957 2026 1
1958 2027 1
1959 2028 1
1960 2029 1
1961 2030 1
1962 2031 1
1963 2032 1
1964 2033 1
1965 2034 0.75
1965 5789 0.25
1966 2035 1
1967 2036 1
1968 2037 1
1969 2038 1
1970 2039 1
1971 2040 1
1972 2041 1
1973 2042 1
1974 2043 1
1975 2044 1
1976 2045 1
1977 2046 1
1978 2047 1
1979 2048 1
1980 2049 1
1981 2050 1
1982 2051 1
1983 2052 1
1984 2053 1
1985 2054 1
1986 2055 1
1987 2057 1
1988 2058 1
1989 2059 1
1990 2060 1
1991 2061 0.5
1991 6218 0.5
1992 2062 1
1993 2063 1
1994 2064 1
1995 2065 1
1996 2066 1
1997 2067 1
1998 2068 1
1999 2069 1
2000 2070 1
2001 2071 1
2002 2072 1
2003 2073 1
2004 2074 1
2005 2075 1
2006 1247 1
2007 2076 1
2008 2077 1
2009 2078 1
2010 2079 1
2011 2080 0.941176
2011 6241 0.0588235
2012 2081 1
2013 2082 1
2014 2083 1
2015 2084 1
2016 2085 1
2017 2086 1
2018 2087 1
2019 2088 1
2020 2089 1
2021 2090 1
2022 2091 1
2023 2092 1
2024 2093 1
2025 2094 1
2026 2095 1
2027 2096 1
2028 2097 1
2029 2098 1
2030 2099 1
2031 2100 1
2032 2101 1
2033 2102 1
2034 2104 1
2035 2105 1
2036 2106 1
2037 2107 1
2038 2108 1
2039 2109 1
2040 2110 1
2041 2111 1
2042 2112 1
2043 2113 1
2044 2114 1
2045 2115 1
2046 2116 1
2047 2117 1
2048 2118 1
2049 2119 1
2050 2120 1
2051 2121 1
2052 2122 1
2053 2123 1
2054 2124 1
2055 2125 1
2056 2126 1
2057 2127 1
2058 2128 1
2059 2129 1
2060 2130 1
2061 2131 1
2062 2132 1
2063 2133 1
2064 2134 1
2065 2135 1
2066 2136 1
2067 2137 1
2068 2138 1
2069 2139 1
2070 2140 1
2071 2141 1
2072 2142 0.5
2072 3398 0.5
2073 2143 1
2074 2144 1
2075 2145 1
2076 2146 1
2077 2147 1
2078 2148 1
2079 2149 1
2080 2150 1
2081 2151 1
2082 2152 1
2083 2153 1
2084 2154 1
2085 2155 0.6875
2085 2578 0.25
2085 6239 0.0625
2086 2156 1
2087 2157 1
2088 2158 1
2089 2159 1
2090 2161 1
2091 2162 1
2092 2163 1
2093 2164 1
2094 2165 1
2095 2166 1
2096 2167 1
2097 2168 1
2098 2169 1
2099 2170 1
2100 2171 0.75
2100 4747 0.25
2101 2172 1
2102 2173 0.928571
2102 2922 0.0714286
2103 2174 1
2104 2175 1
2105 2176 1
2106 2177 0.571429
2106 5359 0.285714
2106 6990 0.142857
2107 2178 1
2108 2179 1
2109 2180 1
2110 2181 1
2111 2182 1
2112 2183 1
2113 2184 1
2114 2185 1
2115 2186 1
2116 2187 1
2117 2188 1
2118 2189 1
2119 2190 1
2120 2191 1
2121 2192 1
2122 2193 1
2123 2194 1
2124 2195 1
2125 2196 1
2126 2197 1
2127 2198 1
2128 2199 1
2129 2201 1
2130 2202 1
2131 2203 1
2132 2204 1
2133 2205 1
2134 2206 1
2135 2207 0.761905
2135 6320 0.0952381
2135 7879 0.142857
2136 2208 1
2137 2209 1
2138 2210 1
2139 2211 1
2140 2212 1
2141 2213 1
2142 2214 1
2143 2215 1
2144 2216 1
2145 2217 1
2146 2218 1
2147 2219 1
2148 2220 1
2149 2221 1
2150 2222 1
2151 2224 1
2152 2225 1
2153 2226 1
2154 2227 1
2155 2228 1
2156 2229 1
2157 2230 1
2158 2177 0.428571
2158 2231 0.571429
2159 2232 1
2160 2233 1
2161 2234 1
2162 2235 1
2163 2236 1
2164 2237 1
2165 2238 1
2166 2239 1
2167 2240 1
2168 2241 1
2169 2242 1
2170 2243 1
2171 2244 1
2172 2245 1
2173 2246 1
2174 2247 1
2175 2248 1
2176 2249 1
2177 84 1
2178 2250 1
2179 2251 1
2180 2252 1
2181 2253 1
2182 2254 1
2183 2255 1
2184 1344 1
2185 2256 1
2186 2257 0.333333
2186 7529 0.666667
2187 2258 1
2188 2259 1
2189 2260 1
2190 2261 1
2191 2262 1
2192 2263 1
2193 2264 1
2194 2265 1
2195 2266 1
2196 2267 1
2197 2268 1
2198 2269 1
2199 2270 1
2200 2271 1
2201 2272 1
2202 2273 1
2203 2274 1
2204 2275 1
2205 2276 1
2206 2277 1
2207 2278 1
2208 2279 1
2209 2280 1
2210 2281 1
2211 2282 1
2212 2283 1
2213 2284 1
2214 2285 1
2215 2286 1
2216 2287 1
2217 2288 1
2218 2289 1
2219 2290 1
2220 2291 1
2221 2292 1
2222 2293 1
2223 2294 1
2224 2295 1
2225 2296 1
2226 2297 1
2227 2298 1
2228 2299 1
2229 2300 1
2230 2302 1
2231 2303 1
2232 2304 1
2233 2305 1
2234 2306 1
2235 2307 1
2236 2308 1
2237 2309 1
2238 2310 1
2239 2311 1
2240 2312 1
2241 2313 1
2242 2314 1
2243 2315 1
2244 2316 1
2245 2317 1
2246 2318 1
2247 2319 1
2248 2320 1
2249 2321 1
2250 2322 1
2251 2323 1
2252 2324 1
2253 2325 1
2254 2326 1
2255 2329 1
2256 2330 1
2257 2331 1
2258 2332 1
2259 2333 1
2260 2334 1
2261 2335 1
2262 2336 1
2263 2337 1
2264 2338 1
2265 2339 1
2266 2340 1
2267 2341 1
2268 2343 1
2269 2344 1
2270 2345 1
2271 2346 1
2272 2347 1
2273 2348 1
2274 2349 1
2275 2350 1
2276 2351 1
2277 2352 1
2278 2353 1
2279 2355 1
2280 2356 1
2281 2357 1
2282 2358 1
2283 2359 1
2284 2360 1
2285 2361 1
2286 2362 1
2287 2363 1
2288 2364 1
2289 2365 1
2290 2366 1
2291 2367 1
2292 2368 1
2293 2369 1
2294 2370 0.4
2294 2806 0.05
2294 3508 0.3
2294 3696 0.05
2294 5449 0.05
2294 7564 0.05
2294 7727 0.1
2295 2371 1
2296 2372 1
2297 2374 1
2298 2375 1
2299 2376 1
2300 2377 1
2301 2378 1
2302 2379 1
2303 2380 1
2304 2381 1
2305 2382 1
2306 2383 1
2307 2384 1
2308 2385 1
2309 2386 1
2310 2387 1
2311 2388 1
2312 2389 1
2313 2390 1
2314 2391 1
2315 2392 1
2316 2393 1
2317 2394 1
2318 2395 1
2319 2396 1
2320 2397 1
2321 2398 1
2322 2399 1
2323 2400 1
2324 2401 1
2325 2402 1
2326 2403 1
2327 2404 1
2328 2405 1
2329 2406 1
2330 2407 1
2331 2408 1
2332 2409 1
2333 2410 0.666667
2333 5663 0.333333
2334 2411 1
2335 2412 0.8
2335 5396 0.2
2336 2414 1
2337 2416 1
2338 2418 1
2339 2419 1
2340 2420 1
2341 2421 1
2342 2422 1
2343 2423 1
2344 2424 1
2345 2425 1
2346 2426 1
2347 2427 1
2348 2429 1
2349 2430 1
2350 2431 1
2351 2432 1
2352 2433 1
2353 2434 1
2354 2435 1
2355 2436 1
2356 2437 0.857143
2356 3484 0.142857
2357 2438 0.846154
2357 7279 0.153846
2358 2439 1
2359 2440 1
2360 2441 1
2361 2442 1
2362 2443 1
2363 2444 1
2364 2445 0.666667
2364 4577 0.333333
2365 2446 1
2366 2447 1
2367 2448 1
2368 2449 1
2369 2450 1
2370 2451 1
2371 2452 1
2372 2453 1
2373 2454 1
2374 2455 1
2375 2456 1
2376 2457 1
2377 2458 1
2378 2459 1
2379 2460 1
2380 2461 1
2381 2462 1
2382 2463 1
2383 2464 0.4
2383 2532 0.6
2384 2465 1
2385 2466 1
2386 2467 1
2387 2468 1
2388 2469 1
2389 2470 1
2390 2471 1
2391 2472 1
2392 2473 1
2393 2474 1
2394 2475 1
2395 2476 1
2396 2477 1
2397 2478 1
2398 2479 1
2399 2480 1
2400 2481 1
2401 2482 1
2402 2483 1
2403 2484 0.2
2403 5326 0.6
2403 7780 0.2
2404 2485 1
2405 2486 1
2406 2487 1
2407 2488 1
2408 742 1
2409 2489 1
2410 123 1
2411 2490 1
2412 2491 0.666667
2412 4128 0.333333
2413 2492 0.666667
2413 6243 0.333333
2414 2493 1
2415 2494 1
2416 2495 1
2417 2498 1
2418 2499 1
2419 2500 1
2420 653 1
2421 2501 1
2422 2502 1
2423 2503 1
2424 2504 1
2425 2505 1
2426 2506 1
2427 2507 1
2428 2508 1
2429 2509 1
2430 2510 1
2431 2511 1
2432 2512 1
2433 2513 1
2434 2514 1
2435 2515 1
2436 2516 1
2437 2517 1
2438 2518 1
2439 2519 1
2440 2520 1
2441 2521 1
2442 2522 1
2443 2523 1
2444 2524 1
2445 2525 1
2446 2526 1
2447 2527 1
2448 2528 0.666667
2448 2758 0.333333
2449 2529 1
2450 2530 1
2451 2531 1
2452 2533 1
2453 2534 1
2454 2535 1
2455 2536 1
2456 2537 1
2457 2538 0.25
2457 3651 0.75
2458 2539 1
2459 2540 1
2460 2541 1
2461 2542 0.25
2461 3032 0.75
2462 2543 1
2463 2544 1
2464 2545 1
2465 2546 1
2466 2547 1
2467 2548 1
2468 2549 1
2469 2550 1
2470 2551 1
2471 2552 1
2472 2553 1
2473 2554 1
2474 2555 1
2475 2556 1
2476 2557 1
2477 2558 1
2478 2559 1
2479 2560 1
2480 2561 1
2481 2562 1
2482 2563 1
2483 2564 1
2484 2565 1
2485 2566 1
2486 2567 1
2487 2568 0.666667
2487 4219 0.333333
2488 2569 1
2489 2570 1
2490 2571 1
2491 2572 1
2492 2573 1
2493 2574 1
2494 2575 1
2495 2576 1
2496 2577 1
2497 2579 1
2498 2580 1
2499 2581 1
2500 2582 1
2501 2583 1
2502 2584 1
2503 2585 1
2504 2586 1
2505 2587 1
2506 2588 1
2507 2589 1
2508 2590 1
2509 2591 1
2510 2592 0.6
2510 4843 0.4
2511 2593 1
2512 2594 1
2513 2595 1
2514 2596 1
2515 2597 1
2516 2598 1
2517 2599 1
2518 2601 1
2519 2602 1
2520 2603 1
2521 2604 1
2522 2605 1
2523 2606 1
2524 2607 1
2525 2608 1
2526 2609 1
2527 2611 1
2528 2612 1
2529 2613 1
2530 2614 1
2531 2615 1
2532 2616 1
2533 2617 1
2534 2618 1
2535 2619 1
2536 2620 1
2537 2621 1
2538 2622 1
2539 715 0.166667
2539 2623 0.416667
2539 2948 0.416667
2540 2624 1
2541 2625 1
2542 2626 1
2543 2627 1
2544 2628 1
2545 2629 1
2546 2630 1
2547 2631 1
2548 2632 1
2549 2633 1
2550 2634 1
2551 2635 1
2552 2636 1
2553 2637 1
2554 2638 1
2555 2639 1
2556 2640 1
2557 2641 1
2558 2642 1
2559 2644 1
2560 2645 1
2561 2646 1
2562 2647 1
2563 2648 1
2564 2649 1
2565 2650 1
2566 2651 1
2567 2652 1
2568 2653 1
2569 2654 0.5
2569 2660 0.5
2570 2655 1
2571 2656 1
2572 2657 1
2573 2658 1
2574 2659 1
2575 2661 1
2576 2662 1
2577 2663 1
2578 2664 1
2579 2665 1
2580 2666 1
2581 2667 1
2582 2668 1
2583 2669 1
2584 2670 1
2585 2671 1
2586 2672 1
2587 2673 1
2588 2674 1
2589 2675 1
2590 2676 1
2591 2678 1
2592 2679 1
2593 2680 1
2594 2681 1
2595 2682 1
2596 2684 1
2597 2685 1
2598 2686 1
2599 2687 1
2600 2688 1
2601 2689 1
2602 2690 1
2603 2691 1
2604 2692 1
2605 2693 1
2606 2694 1
2607 2695 1
2608 2696 1
2609 2697 1
2610 2698 1
2611 2699 1
2612 2700 1
2613 2701 1
2614 2702 1
2615 2703 1
2616 2704 1
2617 2705 1
2618 2706 1
2619 2707 1
2620 2708 1
2621 2709 1
2622 2710 1
2623 2711 1
2624 2712 1
2625 2713 1
2626 2714 1
2627 2715 1
2628 2716 1
2629 2717 1
2630 2718 1
2631 2719 1
2632 2720 1
2633 2721 1
2634 2722 1
2635 2723 1
2636 2724 1
2637 2725 1
2638 2726 1
2639 2727 1
2640 2728 1
2641 2729 1
2642 2731 1
2643 2732 1
2644 2733 1
2645 2734 1
2646 2736 1
2647 2737 1
2648 2738 1
2649 2739 1
2650 2740 1
2651 2741 1
2652 2742 1
2653 2743 1
2654 2744 1
2655 2745 1
2656 2746 1
2657 2747 1
2658 2748 1
2659 2749 1
2660 2750 1
2661 2751 1
2662 2752 1
2663 2753 1
2664 2754 1
2665 2755 1
2666 2756 1
2667 2757 1
2668 2759 1
2669 2760 1
2670 2761 1
2671 2762 1
2672 2763 1
2673 2764 1
2674 2765 1
2675 2766 1
2676 2767 1
2677 2768 1
2678 2770 1
2679 2771 1
2680 2773 1
2681 2774 1
2682 2775 1
2683 2776 0.2
2683 2860 0.6
2683 5515 0.0666667
2683 5593 0.0666667
2683 7605 0.0666667
2684 2777 1
2685 2778 1
2686 2779 1
2687 2780 1
2688 2781 1
2689 2782 0.5
2689 6598 0.5
2690 2783 1
2691 2785 1
2692 2786 1
2693 2787 1
2694 2788 1
2695 2789 1
2696 2790 1
2697 2791 1
2698 2792 1
2699 2793 1
2700 2794 0.0625
2700 2916 0.875
2700 2924 0.0625
2701 2795 1
2702 2796 1
2703 2797 1
2704 2799 1
2705 2800 1
2706 2801 1
2707 2802 1
2708 2803 1
2709 2805 1
2710 2807 1
2711 2808 1
2712 2809 1
2713 2810 1
2714 2811 1
2715 2812 1
2716 2813 1
2717 2814 1
2718 2815 1
2719 2816 1
2720 2817 1
2721 2818 1
2722 2819 1
2723 2820 1
2724 2821 1
2725 2822 1
2726 2823 1
2727 2824 1
2728 2825 1
2729 2826 1
2730 2827 1
2731 2828 1
2732 2829 1
2733 2830 1
2734 2831 1
2735 2832 1
2736 2834 1
2737 2835 1
2738 2836 1
2739 2837 1
2740 2838 1
2741 2839 1
2742 2840 1
2743 2841 1
2744 2842 1
2745 2843 1
2746 2844 1
2747 2845 1
2748 2846 0.4
2748 2990 0.5
2748 5448 0.1
2749 2847 1
2750 2848 1
2751 2849 1
2752 2850 1
2753 2851 1
2754 2852 1
2755 2853 0.5
2755 5706 0.5
2756 2854 1
2757 2855 1
2758 2856 1
2759 2857 1
2760 2858 1
2761 2859 1
2762 2861 1
2763 2862 0.25
2763 3197 0.25
2763 6041 0.5
2764 2863 0.333333
2764 5598 0.666667
2765 2864 1
2766 2865 1
2767 2866 1
2768 2867 1
2769 2868 0.833333
2769 6871 0.166667
2770 2869 0.6
2770 5796 0.4
2771 2870 1
2772 2871 1
2773 2872 1
2774 2873 1
2775 2874 1
2776 2875 1
2777 2876 1
2778 2877 1
2779 2878 1
2780 2879 1
2781 2880 1
2782 2881 1
2783 2882 1
2784 2883 1
2785 2884 1
2786 2885 0.666667
2786 7614 0.333333
2787 2886 1
2788 2887 1
2789 2888 0.666667
2789 7377 0.333333
2790 2889 1
2791 2890 1
2792 2891 1
2793 2892 1
2794 2893 1
2795 2894 1
2796 2895 1
2797 2896 1
2798 2897 1
2799 2898 1
2800 2899 1
2801 2900 1
2802 2901 1
2803 2902 1
2804 2903 1
2805 2904 1
2806 2905 1
2807 2906 1
2808 2907 1
2809 2908 1
2810 2909 1
2811 2910 1
2812 2911 1
2813 2912 1
2814 2913 1
2815 2914 0.857143
2815 3576 0.142857
2816 2915 1
2817 2917 1
2818 2918 1
2819 2919 1
2820 2920 1
2821 2921 1
2822 2923 1
2823 2925 0.142857
2823 3519 0.857143
2824 2926 1
2825 2927 1
2826 2928 1
2827 2929 1
2828 2930 1
2829 2931 1
2830 2932 1
2831 2933 1
2832 2934 1
2833 2935 1
2834 2936 1
2835 2937 1
2836 2938 1
2837 2939 1
2838 2940 1
2839 2941 1
2840 2942 1
2841 2943 1
2842 2944 1
2843 2945 0.538462
2843 3226 0.461538
2844 2946 1
2845 2947 1
2846 2949 1
2847 2950 1
2848 2951 1
2849 2952 1
2850 2953 1
2851 2954 1
2852 2955 1
2853 2956 1
2854 2957 1
2855 2958 1
2856 2959 1
2857 2960 0.333333
2857 5430 0.444444
2857 5504 0.222222
2858 2962 0.5
2858 5004 0.5
2859 2963 1
2860 2964 1
2861 34 0.142857
2861 248 0.142857
2861 2966 0.571429
2861 7339 0.142857
2862 2967 1
2863 2968 1
2864 2969 1
2865 2971 1
2866 2972 1
2867 2973 1
2868 2974 1
2869 2975 1
2870 2976 1
2871 2977 1
2872 2979 1
2873 2980 1
2874 2981 1
2875 2982 1
2876 2983 1
2877 2984 1
2878 2985 1
2879 2986 1
2880 2987 1
2881 2988 1
2882 2989 1
2883 2991 1
2884 2993 1
2885 2994 1
2886 2995 1
2887 2996 1
2888 2997 1
2889 2998 1
2890 2999 1
2891 3000 1
2892 3001 1
2893 3002 1
2894 3003 1
2895 3004 1
2896 3005 1
2897 3006 1
2898 3007 1
2899 3008 1
2900 3009 1
2901 3010 1
2902 3011 1
2903 3012 1
2904 3013 1
2905 3014 1
2906 3015 1
2907 3016 1
2908 3017 1
2909 3018 1
2910 3019 1
2911 3020 1
2912 3021 1
2913 3022 1
2914 3023 1
2915 3024 0.666667
2915 7515 0.333333
2916 3025 1
2917 3026 1
2918 3027 1
2919 3028 1
2920 3029 1
2921 3030 1
2922 3031 1
2923 3033 1
2924 3034 1
2925 3035 1
2926 3037 1
2927 3038 1
2928 3039 1
2929 3040 1
2930 3041 1
2931 3042 1
2932 3043 1
2933 3045 1
2934 3046 1
2935 3047 1
2936 3048 1
2937 3049 0.875
2937 3887 0.125
2938 3050 1
2939 3051 1
2940 3052 1
2941 3053 1
2942 3054 1
2943 3056 1
2944 3057 1
2945 3058 1
2946 3059 1
2947 3060 1
2948 3061 0.5
2948 3223 0.5
2949 3062 1
2950 3063 1
2951 3065 1
2952 3066 1
2953 3067 0.6
2953 5750 0.4
2954 3068 1
2955 3069 1
2956 3070 1
2957 3071 1
2958 3072 1
2959 3074 1
2960 3075 1
2961 3076 1
2962 3077 1
2963 3078 1
2964 3079 1
2965 3080 1
2966 3081 1
2967 3082 1
2968 3083 1
2969 3084 1
2970 3086 1
2971 3087 1
2972 3088 1
2973 3089 1
2974 3090 1
2975 3091 1
2976 3092 1
2977 3093 1
2978 3094 1
2979 3095 1
2980 3096 1
2981 3097 1
2982 3098 1
2983 3099 1
2984 3100 1
2985 3101 1
2986 3102 0.5
2986 7881 0.5
2987 3103 0.333333
2987 3126 0.666667
2988 3104 1
2989 3105 1
2990 3106 1
2991 3107 1
2992 3108 1
2993 3109 1
2994 3110 1
2995 3111 1
2996 3113 1
2997 3114 1
2998 3115 1
2999 3116 1
3000 3117 0.454545
3000 4150 0.363636
3000 5438 0.181818
3001 3118 1
3002 3119 1
3003 3120 1
3004 3121 1
3005 3122 1
3006 3123 1
3007 3124 1
3008 3125 1
3009 3127 1
3010 3128 1
3011 3129 1
3012 3130 1
3013 3131 1
3014 3132 1
3015 3133 1
3016 3134 1
3017 3135 1
3018 3136 1
3019 3137 1
3020 3138 1
3021 3139 1
3022 3140 0.666667
3022 7403 0.333333
3023 3141 1
3024 3142 1
3025 3143 1
3026 3144 1
3027 3145 1
3028 3146 1
3029 3147 1
3030 3148 1
3031 3149 1
3032 3150 1
3033 3151 1
3034 3152 1
3035 3153 1
3036 3154 1
3037 3155 1
3038 3156 0.333333
3038 3217 0.666667
3039 3157 1
3040 3158 1
3041 3159 1
3042 3160 1
3043 3161 1
3044 3162 1
3045 3163 1
3046 3164 1
3047 3165 1
3048 3166 1
3049 3167 1
3050 3168 1
3051 3169 1
3052 3170 1
3053 3171 1
3054 3172 1
3055 3173 1
3056 3174 0.5
3056 6411 0.5
3057 3175 1
3058 3176 1
3059 3177 1
3060 3178 1
3061 3179 1
3062 3180 1
3063 3181 1
3064 3183 1
3065 3184 1
3066 3185 1
3067 3186 1
3068 3187 1
3069 3188 1
3070 3189 1
3071 3190 1
3072 3191 1
3073 3192 1
3074 3193 1
3075 3194 1
3076 3195 1
3077 3196 1
3078 3198 1
3079 3199 1
3080 3200 1
3081 3201 1
3082 3202 1
3083 3204 1
3084 3205 1
3085 3206 0.333333
3085 4220 0.333333
3085 6255 0.333333
3086 3207 1
3087 3208 1
3088 3209 1
3089 3210 1
3090 3211 1
3091 3212 1
3092 3213 1
3093 3214 1
3094 3215 1
3095 3216 1
3096 3218 1
3097 3219 1
3098 3220 1
3099 3222 1
3100 3224 1
3101 3225 0.2
3101 3309 0.8
3102 3227 1
3103 3228 1
3104 3229 1
3105 3230 1
3106 3231 1
3107 3232 1
3108 3233 1
3109 3234 1
3110 3235 1
3111 3236 0.333333
3111 6585 0.666667
3112 3239 1
3113 3240 1
3114 3241 1
3115 3242 1
3116 3243 1
3117 3244 1
3118 3245 1
3119 3246 1
3120 3247 1
3121 3248 1
3122 3249 0.2
3122 4294 0.4
3122 5397 0.2
3122 6101 0.2
3123 3250 1
3124 3251 1
3125 3252 1
3126 3253 1
3127 3254 1
3128 3255 1
3129 3256 1
3130 3257 1
3131 3258 1
3132 3259 1
3133 3260 0.666667
3133 5000 0.333333
3134 3261 1
3135 3262 1
3136 3263 1
3137 3264 1
3138 3265 1
3139 3267 1
3140 3268 1
3141 3269 1
3142 3270 1
3143 3271 1
3144 3272 1
3145 3273 1
3146 3274 1
3147 3275 1
3148 3276 1
3149 3277 1
3150 3278 1
3151 3279 1
3152 3280 1
3153 3281 1
3154 3282 1
3155 3283 1
3156 3284 1
3157 3285 1
3158 3286 1
3159 3287 1
3160 3288 1
3161 3289 1
3162 3290 1
3163 3291 1
3164 3292 1
3165 3293 1
3166 3294 1
3167 3295 1
3168 3296 1
3169 3297 1
3170 3298 1
3171 3299 1
3172 3300 1
3173 3301 1
3174 3302 1
3175 3303 1
3176 3304 1
3177 3305 1
3178 3306 1
3179 3307 1
3180 3308 1
3181 3310 1
3182 3311 1
3183 3312 1
3184 3313 1
3185 3314 1
3186 3315 1
3187 3316 1
3188 3317 1
3189 3318 1
3190 3319 1
3191 3320 1
3192 3321 1
3193 3322 1
3194 3323 1
3195 3324 1
3196 3325 1
3197 3326 1
3198 3327 1
3199 3328 1
3200 3329 1
3201 3330 1
3202 3331 1
3203 3332 1
3204 3333 1
3205 3334 1
3206 3335 1
3207 3336 1
3208 3337 1
3209 3338 1
3210 3339 1
3211 3340 1
3212 3341 1
3213 3342 1
3214 3343 1
3215 3344 1
3216 3345 1
3217 3347 1
3218 3348 1
3219 3349 1
3220 3350 1
3221 3351 1
3222 3353 1
3223 3354 1
3224 3355 1
3225 3356 1
3226 3357 1
3227 3358 1
3228 3359 1
3229 3360 1
3230 3361 1
3231 3362 1
3232 3363 1
3233 3364 1
3234 3365 1
3235 3366 1
3236 3367 1
3237 3368 1
3238 3369 1
3239 3370 1
3240 3371 1
3241 3372 1
3242 3373 1
3243 3374 1
3244 3375 1
3245 3376 1
3246 3377 1
3247 3378 1
3248 3379 1
3249 3380 1
3250 3381 1
3251 3383 1
3252 3384 1
3253 3385 1
3254 3386 1
3255 3388 1
3256 3389 1
3257 3390 1
3258 3391 1
3259 3392 1
3260 3393 1
3261 3394 1
3262 3395 0.2
3262 6291 0.6
3262 7912 0.2
3263 3396 1
3264 3397 1
3265 3399 1
3266 3400 1
3267 3401 1
3268 3402 1
3269 3403 1
3270 3404 1
3271 3406 1
3272 3408 1
3273 3409 1
3274 3410 1
3275 3411 1
3276 3412 1
3277 3413 1
3278 3414 1
3279 3415 1
3280 3416 1
3281 3417 1
3282 3418 1
3283 3419 1
3284 3420 1
3285 3421 1
3286 3423 1
3287 3424 1
3288 3425 1
3289 3426 1
3290 3427 1
3291 3428 1
3292 3429 1
3293 3430 1
3294 3431 1
3295 3432 1
3296 3433 1
3297 3434 1
3298 3435 1
3299 3436 1
3300 3437 1
3301 3438 1
3302 3439 1
3303 3440 1
3304 3441 1
3305 3442 1
3306 3443 1
3307 3445 1
3308 3446 0.8
3308 7208 0.2
3309 3447 1
3310 3448 1
3311 3449 1
3312 3450 1
3313 3451 1
3314 3452 1
3315 3453 1
3316 3454 1
3317 3455 1
3318 3456 1
3319 3457 1
3320 3458 1
3321 3459 1
3322 3460 1
3323 3461 1
3324 3462 1
3325 3463 1
3326 3464 1
3327 3465 1
3328 3466 1
3329 3467 1
3330 3468 1
3331 3469 1
3332 3470 1
3333 3471 1
3334 3472 1
3335 3474 1
3336 3475 1
3337 3476 1
3338 3477 1
3339 3478 1
3340 3479 1
3341 3480 1
3342 3481 1
3343 3482 0.666667
3343 6567 0.333333
3344 3483 1
3345 3485 1
3346 3486 1
3347 3487 1
3348 3488 1
3349 3489 0.5
3349 5507 0.25
3349 5869 0.25
3350 3490 1
3351 3491 1
3352 3492 1
3353 3493 1
3354 3495 1
3355 3496 1
3356 3497 1
3357 3498 1
3358 3499 1
3359 338 1
3360 3500 1
3361 3501 1
3362 3502 1
3363 3503 1
3364 3504 1
3365 3505 1
3366 3506 1
3367 3507 1
3368 3509 1
3369 3511 1
3370 3512 1
3371 3513 1
3372 3514 1
3373 3515 1
3374 3516 1
3375 3517 1
3376 3518 1
3377 3520 1
3378 3521 1
3379 3522 1
3380 3523 1
3381 3524 1
3382 3525 1
3383 3526 0.666667
3383 5661 0.333333
3384 3527 1
3385 3528 0.4
3385 5903 0.6
3386 3529 1
3387 3530 1
3388 3531 0.5
3388 7126 0.5
3389 3532 1
3390 3533 0.8
3390 6229 0.2
3391 3534 0.615385
3391 4061 0.384615
3392 3535 1
3393 3536 1
3394 3537 1
3395 3538 1
3396 3539 1
3397 3540 1
3398 3541 1
3399 3542 1
3400 3543 1
3401 3544 1
3402 3545 1
3403 3546 1
3404 3547 1
3405 3548 1
3406 3549 1
3407 3550 1
3408 3551 1
3409 3552 1
3410 3553 1
3411 3554 1
3412 3555 1
3413 3556 1
3414 3557 1
3415 3558 1
3416 3559 1
3417 3560 1
3418 3561 1
3419 3562 1
3420 3563 1
3421 3564 1
3422 3565 1
3423 3566 1
3424 3567 1
3425 3568 1
3426 3569 1
3427 3570 1
3428 3572 1
3429 3573 1
3430 3574 1
3431 3575 1
3432 3577 1
3433 3578 1
3434 3579 1
3435 3580 1
3436 3581 1
3437 3582 1
3438 3583 1
3439 3584 1
3440 3585 1
3441 3586 1
3442 3587 1
3443 3588 1
3444 3589 1
3445 3590 1
3446 3591 1
3447 3592 1
3448 3593 1
3449 3594 1
3450 3595 1
3451 3596 1
3452 3598 0.5
3452 7986 0.5
3453 3599 1
3454 3600 1
3455 3601 1
3456 3602 1
3457 3603 1
3458 3604 0.333333
3458 3653 0.333333
3458 7448 0.333333
3459 3605 1
3460 3606 1
3461 3607 1
3462 3608 1
3463 3609 1
3464 3610 1
3465 3611 1
3466 3612 1
3467 3613 1
3468 3615 0.952381
3468 6428 0.047619
3469 3616 1
3470 3617 1
3471 3618 1
3472 3619 1
3473 3621 1
3474 3622 1
3475 3623 1
3476 3624 1
3477 3625 1
3478 3626 1
3479 3627 0.5
3479 4221 0.5
3480 3628 1
3481 3629 1
3482 3630 1
3483 3631 1
3484 3632 1
3485 3633 1
3486 3634 1
3487 3635 1
3488 3636 1
3489 3637 1
3490 3638 1
3491 3639 1
3492 3641 1
3493 3642 1
3494 3643 1
3495 3644 1
3496 3645 1
3497 3646 1
3498 3647 1
3499 3648 1
3500 3649 1
3501 3650 1
3502 3652 1
3503 3654 1
3504 3655 1
3505 3657 0.833333
3505 4961 0.166667
3506 3658 1
3507 3659 1
3508 3660 1
3509 3661 1
3510 3662 1
3511 3663 1
3512 3664 1
3513 3665 1
3514 3666 1
3515 3667 1
3516 3668 1
3517 3669 1
3518 3670 1
3519 3671 1
3520 3672 1
3521 3673 1
3522 3674 1
3523 3675 1
3524 3676 1
3525 3677 1
3526 3678 1
3527 3679 1
3528 3680 1
3529 3681 1
3530 3682 1
3531 3683 1
3532 3684 1
3533 3685 1
3534 3686 1
3535 3687 1
3536 3688 1
3537 3689 1
3538 3690 1
3539 3691 1
3540 3692 1
3541 3693 1
3542 3694 1
3543 3695 1
3544 3698 1
3545 3699 1
3546 3700 1
3547 3701 1
3548 3702 1
3549 3703 1
3550 3704 1
3551 3705 1
3552 3706 1
3553 3707 1
3554 3708 1
3555 3709 1
3556 3710 1
3557 3711 1
3558 3712 1
3559 3713 1
3560 3714 1
3561 3715 1
3562 3716 1
3563 3717 1
3564 3718 1
3565 3720 1
3566 3721 1
3567 3722 1
3568 3723 1
3569 3724 1
3570 3725 1
3571 3727 1
3572 3728 1
3573 3729 1
3574 3730 1
3575 3731 1
3576 3732 1
3577 3733 1
3578 3734 1
3579 3735 1
3580 3736 1
3581 3737 1
3582 3738 1
3583 3739 1
3584 3740 1
3585 3741 1
3586 3742 1
3587 3743 1
3588 3744 1
3589 3745 1
3590 3746 1
3591 3747 1
3592 3748 1
3593 3749 1
3594 3750 1
3595 3751 1
3596 3752 1
3597 3753 1
3598 3754 1
3599 3755 1
3600 3756 1
3601 3757 1
3602 3758 1
3603 3759 1
3604 3760 1
3605 3761 1
3606 3762 1
3607 3763 1
3608 3764 1
3609 3765 1
3610 3766 1
3611 3767 1
3612 3768 1
3613 3769 1
3614 3770 1
3615 3771 1
3616 3772 1
3617 3773 1
3618 3774 1
3619 3775 1
3620 3776 1
3621 3777 1
3622 3778 1
3623 3779 1
3624 3780 1
3625 3781 1
3626 3782 1
3627 3783 1
3628 3784 1
3629 3785 1
3630 3786 1
3631 3787 1
3632 3788 1
3633 192 0.111111
3633 3789 0.444444
3633 3884 0.444444
3634 3790 1
3635 3791 1
3636 3792 0.714286
3636 4316 0.285714
3637 3793 1
3638 3794 0.75
3638 3992 0.25
3639 3795 1
3640 3796 1
3641 3797 1
3642 3798 1
3643 3799 1
3644 3800 1
3645 3801 1
3646 3802 1
3647 3803 1
3648 3804 1
3649 3805 1
3650 3806 1
3651 3807 1
3652 3808 1
3653 3809 1
3654 3811 1
3655 3812 1
3656 3813 1
3657 3814 1
3658 3815 1
3659 2623 0.25
3659 3824 0.5
3659 3963 0.25
3660 3816 1
3661 3817 1
3662 3818 1
3663 3819 1
3664 3820 1
3665 3822 1
3666 3823 0.8
3666 6008 0.2
3667 3825 1
3668 3826 1
3669 3827 1
3670 3828 1
3671 3829 1
3672 3830 1
3673 3831 1
3674 3832 1
3675 3833 1
3676 3834 1
3677 3835 1
3678 3836 1
3679 3837 1
3680 3838 1
3681 3840 1
3682 3841 1
3683 3842 1
3684 3843 1
3685 3844 1
3686 3845 1
3687 3846 0.5
3687 7997 0.5
3688 3847 1
3689 3848 1
3690 3849 1
3691 3850 1
3692 3851 1
3693 3852 1
3694 3853 1
3695 3854 1
3696 3855 1
3697 3856 1
3698 3857 1
3699 3858 1
3700 3859 1
3701 3860 1
3702 3861 1
3703 3862 1
3704 3863 1
3705 3864 1
3706 3865 1
3707 3866 1
3708 3867 1
3709 3868 1
3710 3869 1
3711 3870 1
3712 3871 1
3713 3872 1
3714 3873 1
3715 3874 1
3716 3875 1
3717 3876 1
3718 3877 1
3719 3878 1
3720 3879 1
3721 3880 1
3722 3881 1
3723 3882 1
3724 3883 0.2
3724 6220 0.8
3725 3885 1
3726 3886 1
3727 3888 1
3728 3889 1
3729 3890 1
3730 3892 1
3731 3893 1
3732 3894 1
3733 3895 1
3734 3896 1
3735 3897 1
3736 3898 1
3737 3899 1
3738 3900 1
3739 3901 1
3740 3902 1
3741 3903 1
3742 3904 1
3743 3905 1
3744 3906 1
3745 3907 1
3746 3908 0.666667
3746 4184 0.333333
3747 3909 1
3748 3910 1
3749 3911 1
3750 3912 1
3751 3913 1
3752 3914 1
3753 3915 1
3754 3916 1
3755 3917 1
3756 3918 1
3757 3919 1
3758 3920 1
3759 3921 1
3760 3922 1
3761 3923 1
3762 3924 1
3763 3925 1
3764 3926 1
3765 3927 1
3766 3928 1
3767 3929 1
3768 3930 1
3769 3931 1
3770 3932 1
3771 3933 1
3772 3934 1
3773 3935 1
3774 3936 1
3775 3937 1
3776 3938 1
3777 3939 1
3778 3940 1
3779 3941 1
3780 3942 1
3781 3943 1
3782 3944 1
3783 3945 1
3784 3946 1
3785 3947 0.2
3785 4214 0.8
3786 3948 1
3787 3949 1
3788 3950 1
3789 3952 1
3790 3953 0.333333
3790 5975 0.333333
3790 7653 0.333333
3791 3954 1
3792 3955 1
3793 3956 1
3794 3957 1
3795 3958 1
3796 3959 0.5
3796 4943 0.5
3797 3960 1
3798 3961 1
3799 3962 1
3800 3964 1
3801 3965 1
3802 3966 1
3803 3968 1
3804 3969 1
3805 3970 1
3806 3971 1
3807 3972 1
3808 3973 1
3809 3974 1
3810 3975 1
3811 3976 1
3812 3977 1
3813 3980 1
3814 3981 1
3815 3982 1
3816 3983 1
3817 3984 1
3818 3985 1
3819 3986 1
3820 3987 1
3821 3988 1
3822 3989 1
3823 3990 1
3824 3991 1
3825 3993 1
3826 3994 1
3827 3995 1
3828 3996 1
3829 3997 1
3830 3998 1
3831 3999 1
3832 4000 1
3833 4001 1
3834 4002 1
3835 4003 1
3836 4004 1
3837 4005 1
3838 4006 1
3839 4007 1
3840 4008 1
3841 4009 1
3842 4010 1
3843 4011 1
3844 4012 1
3845 4013 1
3846 4014 1
3847 4015 1
3848 4016 1
3849 4017 1
3850 4018 1
3851 4019 1
3852 4020 1
3853 4021 1
3854 4022 1
3855 4023 1
3856 4024 1
3857 4025 1
3858 4026 1
3859 4027 1
3860 4028 1
3861 4029 1
3862 4030 1
3863 4031 1
3864 4032 1
3865 4033 1
3866 4034 1
3867 4035 1
3868 4036 1
3869 4037 1
3870 4038 1
3871 4039 1
3872 4040 1
3873 4042 1
3874 4043 1
3875 4044 1
3876 4045 1
3877 4046 1
3878 4047 1
3879 4048 1
3880 4049 1
3881 4050 1
3882 4051 1
3883 4052 1
3884 4053 1
3885 4054 1
3886 4055 1
3887 4056 1
3888 4057 1
3889 4058 1
3890 4059 1
3891 4060 1
3892 4062 1
3893 4063 1
3894 4064 1
3895 4065 1
3896 4066 1
3897 4067 1
3898 4068 1
3899 4069 1
3900 4070 1
3901 4071 1
3902 4072 1
3903 4073 1
3904 4074 1
3905 4075 1
3906 4076 1
3907 4077 1
3908 4078 1
3909 4079 1
3910 4080 1
3911 4081 1
3912 4082 1
3913 4083 1
3914 4084 1
3915 4085 1
3916 4086 1
3917 4087 1
3918 4088 1
3919 4089 1
3920 4090 1
3921 4091 1
3922 4092 1
3923 4093 1
3924 4094 1
3925 4095 1
3926 4096 1
3927 4097 1
3928 4098 1
3929 4099 1
3930 4100 1
3931 4101 1
3932 4102 1
3933 4103 1
3934 4104 1
3935 4105 1
3936 4106 1
3937 4107 1
3938 4108 1
3939 4109 1
3940 4110 1
3941 4111 1
3942 4112 1
3943 4113 1
3944 4114 1
3945 4115 1
3946 4117 1
3947 4118 1
3948 4119 1
3949 4120 1
3950 4121 1
3951 4122 1
3952 4123 1
3953 4124 1
3954 4125 1
3955 4126 1
3956 4127 1
3957 4129 1
3958 4130 1
3959 4131 1
3960 4132 1
3961 4133 1
3962 4134 1
3963 4135 1
3964 4136 1
3965 4137 1
3966 4138 1
3967 4139 1
3968 4140 1
3969 4141 1
3970 4142 1
3971 4143 1
3972 4144 1
3973 4145 1
3974 4146 1
3975 4147 1
3976 4148 1
3977 4149 1
3978 4151 1
3979 4152 1
3980 4153 1
3981 4154 1
3982 4155 1
3983 4156 1
3984 4157 1
3985 4158 1
3986 4159 1
3987 4160 1
3988 4161 1
3989 4162 1
3990 4163 1
3991 4164 1
3992 4165 1
3993 4166 1
3994 4167 1
3995 4169 1
3996 4170 1
3997 4171 1
3998 4172 1
3999 4173 1
4000 4174 1
4001 4175 1
4002 4176 1
4003 4177 1
4004 4178 1
4005 4179 1
4006 4180 1
4007 4181 1
4008 4182 1
4009 4183 1
4010 4185 1
4011 4186 1
4012 4187 1
4013 4188 1
4014 4189 1
4015 4190 0.888889
4015 6680 0.111111
4016 4191 1
4017 4192 1
4018 4193 1
4019 4194 1
4020 4195 1
4021 4196 1
4022 4197 1
4023 4198 1
4024 4199 1
4025 4200 1
4026 4201 1
4027 4202 1
4028 4203 1
4029 4204 1
4030 4205 1
4031 4206 0.75
4031 6371 0.25
4032 4207 1
4033 4208 1
4034 4209 1
4035 4210 1
4036 4211 1
4037 4212 1
4038 4213 1
4039 4215 1
4040 4216 1
4041 4218 1
4042 4222 1
4043 4223 1
4044 4224 1
4045 4225 1
4046 4226 1
4047 4227 1
4048 4228 1
4049 4229 1
4050 4230 1
4051 4231 1
4052 4232 1
4053 4233 1
4054 4234 1
4055 4235 1
4056 4236 1
4057 4237 1
4058 4238 1
4059 4239 1
4060 4240 1
4061 4241 1
4062 4242 1
4063 4243 1
4064 4244 1
4065 4245 1
4066 4246 1
4067 4247 1
4068 4248 1
4069 4249 1
4070 4250 1
4071 4251 1
4072 4252 1
4073 4253 1
4074 4254 1
4075 4255 1
4076 4256 1
4077 4257 1
4078 4258 1
4079 4259 1
4080 4260 1
4081 4261 1
4082 4262 1
4083 4263 1
4084 4264 1
4085 4265 1
4086 4266 1
4087 4267 1
4088 4268 1
4089 4269 1
4090 4270 1
4091 4271 1
4092 4272 1
4093 4274 1
4094 4275 1
4095 4276 1
4096 4277 1
4097 4278 1
4098 4279 1
4099 4280 1
4100 4282 1
4101 4283 1
4102 4284 1
4103 4285 1
4104 4286 1
4105 4289 1
4106 4290 1
4107 4291 1
4108 4292 1
4109 4293 1
4110 4295 1
4111 4296 1
4112 4297 1
4113 4298 1
4114 4299 1
4115 4300 1
4116 4302 1
4117 4304 1
4118 4305 1
4119 4306 1
4120 4307 1
4121 4308 1
4122 4309 1
4123 4310 1
4124 4311 1
4125 4312 1
4126 4313 1
4127 4314 1
4128 4317 1
4129 4318 1
4130 4319 1
4131 4320 1
4132 4321 1
4133 4322 1
4134 4323 1
4135 4324 1
4136 4325 1
4137 4326 1
4138 4327 1
4139 4328 1
4140 4329 1
4141 4330 1
4142 4331 1
4143 4332 0.5
4143 6592 0.25
4143 6811 0.25
4144 4334 1
4145 4335 1
4146 4336 1
4147 4337 1
4148 4338 1
4149 4339 1
4150 4340 1
4151 4341 1
4152 4342 1
4153 4343 1
4154 4344 1
4155 4345 1
4156 4346 0.75
4156 4515 0.25
4157 4347 1
4158 4348 1
4159 4349 1
4160 4350 1
4161 4351 1
4162 4352 1
4163 4354 1
4164 4355 1
4165 4356 1
4166 4357 1
4167 4358 1
4168 4359 1
4169 4360 1
4170 4361 1
4171 4362 1
4172 4363 1
4173 4364 1
4174 4365 1
4175 4366 1
4176 4367 1
4177 4368 1
4178 4369 1
4179 4370 1
4180 4371 1
4181 4372 1
4182 4373 1
4183 4374 1
4184 4375 1
4185 4376 1
4186 4377 1
4187 4378 1
4188 4379 1
4189 4380 1
4190 4381 1
4191 4382 1
4192 4383 1
4193 4384 1
4194 4386 1
4195 4387 1
4196 4388 1
4197 4389 1
4198 4390 1
4199 4391 1
4200 4392 1
4201 4393 1
4202 4394 1
4203 4395 1
4204 4396 1
4205 4397 1
4206 4398 0.5
4206 7300 0.5
4207 4399 1
4208 4400 1
4209 4401 1
4210 4402 1
4211 4403 1
4212 4404 1
4213 4405 1
4214 4406 1
4215 4407 1
4216 4408 1
4217 4409 1
4218 4410 1
4219 4411 1
4220 4412 1
4221 4413 1
4222 4414 1
4223 4415 1
4224 4416 1
4225 4417 1
4226 4418 1
4227 4419 1
4228 4420 1
4229 4421 1
4230 4422 1
4231 4423 1
4232 4424 1
4233 4425 1
4234 4426 1
4235 4427 1
4236 4428 1
4237 4429 1
4238 4430 1
4239 4431 1
4240 4432 1
4241 4433 1
4242 4435 1
4243 4436 1
4244 4437 1
4245 4438 1
4246 4439 1
4247 4440 1
4248 4441 0.666667
4248 7224 0.333333
4249 4442 1
4250 4443 1
4251 4444 1
4252 4445 1
4253 4446 1
4254 4447 1
4255 4448 1
4256 4449 1
4257 4450 1
4258 4451 1
4259 4452 0.5
4259 7724 0.5
4260 4453 1
4261 4454 1
4262 4455 1
4263 4456 1
4264 4457 1
4265 4458 1
4266 4459 1
4267 4460 1
4268 4462 1
4269 4463 1
4270 4464 1
4271 4465 1
4272 4466 1
4273 4467 1
4274 4468 1
4275 4470 1
4276 4471 1
4277 4472 1
4278 4473 1
4279 4474 1
4280 4475 1
4281 4476 1
4282 4477 1
4283 4478 1
4284 4479 1
4285 4480 1
4286 4481 1
4287 4482 1
4288 4483 1
4289 4484 1
4290 4485 1
4291 4486 1
4292 4487 1
4293 4488 1
4294 4489 1
4295 4490 1
4296 4491 1
4297 4492 1
4298 4493 1
4299 4494 1
4300 4496 1
4301 4497 1
4302 4498 1
4303 4499 1
4304 4500 1
4305 4501 1
4306 4502 1
4307 4503 1
4308 4504 1
4309 4505 1
4310 4506 1
4311 4507 1
4312 4508 1
4313 4509 1
4314 4510 1
4315 4511 1
4316 4512 1
4317 4513 1
4318 4514 1
4319 4190 1
4320 8 0.246761
4320 34 0.249372
4320 1095 0.00511911
4320 4515 0.249374
4320 6992 0.124687
4320 7141 0.124687
4321 4516 1
4322 4517 1
4323 4518 1
4324 4519 1
4325 4520 1
4326 4521 1
4327 4522 1
4328 4523 1
4329 4524 1
4330 4525 1
4331 4526 1
4332 4527 1
4333 4528 1
4334 4529 1
4335 4530 1
4336 4531 1
4337 4532 1
4338 4533 1
4339 4534 1
4340 4535 1
4341 4536 1
4342 4537 1
4343 4538 1
4344 4539 1
4345 4540 1
4346 4541 1
4347 4542 1
4348 4543 1
4349 4544 1
4350 4545 1
4351 4546 1
4352 4547 1
4353 4548 1
4354 4549 1
4355 4550 0.833333
4355 5238 0.166667
4356 4551 1
4357 4552 1
4358 4554 1
4359 4555 1
4360 4556 1
4361 4557 1
4362 4558 1
4363 4559 1
4364 4560 1
4365 4561 1
4366 4562 1
4367 4563 1
4368 4564 1
4369 4565 0.333333
4369 5339 0.666667
4370 4566 1
4371 4567 1
4372 4568 1
4373 4569 1
4374 4570 1
4375 4571 1
4376 4572 1
4377 4573 1
4378 4574 1
4379 4575 1
4380 4576 1
4381 4578 1
4382 4579 1
4383 4580 1
4384 4581 1
4385 4582 1
4386 4584 1
4387 4585 1
4388 4586 1
4389 4587 1
4390 4588 1
4391 4589 1
4392 4590 1
4393 4591 1
4394 4592 1
4395 4593 1
4396 4594 1
4397 4595 1
4398 4596 1
4399 4597 1
4400 4599 1
4401 4600 1
4402 4601 0.428571
4402 5334 0.428571
4402 7159 0.142857
4403 4602 1
4404 4603 1
4405 4604 1
4406 4605 1
4407 4606 1
4408 4607 1
4409 4608 1
4410 4609 1
4411 4610 1
4412 4611 1
4413 80 1
4414 4612 1
4415 4613 1
4416 4614 1
4417 4615 1
4418 4616 1
4419 4617 1
4420 4618 1
4421 4619 1
4422 4620 1
4423 4621 1
4424 4622 1
4425 4623 1
4426 4624 1
4427 4625 1
4428 4626 1
4429 4627 1
4430 4628 1
4431 4629 1
4432 4630 1
4433 4631 1
4434 4632 1
4435 4633 1
4436 4634 1
4437 4635 1
4438 4636 1
4439 4637 1
4440 4638 1
4441 4639 1
4442 4640 1
4443 4641 1
4444 4642 1
4445 4643 1
4446 4644 1
4447 4645 1
4448 4646 1
4449 4647 1
4450 4648 1
4451 4649 1
4452 4650 1
4453 4651 1
4454 4652 1
4455 4653 1
4456 4654 1
4457 4655 1
4458 4656 1
4459 4657 1
4460 4658 1
4461 4659 1
4462 4660 1
4463 4661 1
4464 4662 1
4465 4663 1
4466 4664 1
4467 4665 1
4468 4666 1
4469 4667 1
4470 4668 1
4471 4669 1
4472 4670 1
4473 4671 1
4474 4672 1
4475 4673 1
4476 4674 1
4477 4675 1
4478 4676 1
4479 4677 1
4480 4678 1
4481 4679 1
4482 4680 1
4483 4681 1
4484 4682 1
4485 4683 1
4486 4684 1
4487 4685 1
4488 4686 1
4489 4687 1
4490 4688 1
4491 4689 1
4492 4691 1
4493 4692 1
4494 4693 1
4495 4694 1
4496 4695 1
4497 4696 1
4498 4697 1
4499 4698 1
4500 4699 1
4501 4700 1
4502 4701 1
4503 4702 1
4504 4703 1
4505 4704 1
4506 4705 1
4507 4706 1
4508 4707 1
4509 4708 1
4510 4709 1
4511 4710 1
4512 4711 1
4513 4712 1
4514 4713 1
4515 4714 1
4516 4715 1
4517 4716 1
4518 4717 1
4519 4718 1
4520 4719 1
4521 4720 1
4522 4721 1
4523 4722 1
4524 4723 0.666667
4524 7739 0.333333
4525 4724 1
4526 4725 1
4527 4726 1
4528 4728 1
4529 4729 1
4530 4730 1
4531 4731 1
4532 4732 1
4533 4733 1
4534 4734 1
4535 4735 1
4536 4736 1
4537 4737 1
4538 4738 1
4539 4740 1
4540 4741 1
4541 4742 1
4542 4743 1
4543 4744 1
4544 4745 1
4545 4746 1
4546 4748 1
4547 4749 1
4548 4750 1
4549 4751 1
4550 4752 1
4551 4753 1
4552 4754 1
4553 4755 1
4554 4756 1
4555 4757 1
4556 4758 1
4557 4759 1
4558 4760 1
4559 4761 1
4560 4762 1
4561 4763 1
4562 4764 1
4563 4765 1
4564 4766 1
4565 4767 1
4566 4768 1
4567 4769 1
4568 4770 1
4569 4771 1
4570 4772 1
4571 4773 1
4572 4774 1
4573 4775 1
4574 4776 1
4575 4777 1
4576 4778 1
4577 4779 1
4578 4780 1
4579 4781 1
4580 4782 1
4581 4784 1
4582 4785 1
4583 4786 1
4584 4787 1
4585 4788 1
4586 4789 1
4587 4790 1
4588 4791 1
4589 4792 1
4590 4793 1
4591 4794 1
4592 4795 1
4593 4796 1
4594 4798 1
4595 4799 1
4596 4800 1
4597 4801 1
4598 4802 1
4599 4803 1
4600 4804 1
4601 4805 1
4602 4806 1
4603 4807 1
4604 4808 1
4605 4809 1
4606 4810 1
4607 4811 1
4608 4812 1
4609 4813 1
4610 4814 1
4611 4815 1
4612 4816 1
4613 4817 1
4614 4818 1
4615 4819 1
4616 4820 1
4617 4821 1
4618 4822 1
4619 4823 1
4620 4824 1
4621 4825 1
4622 4826 1
4623 4827 1
4624 4828 1
4625 4829 1
4626 4830 1
4627 4832 1
4628 4834 1
4629 4835 1
4630 4836 1
4631 4837 1
4632 4838 1
4633 4839 1
4634 4840 1
4635 4841 1
4636 4842 1
4637 4844 1
4638 4845 1
4639 4846 1
4640 4847 1
4641 4848 1
4642 4849 1
4643 4850 1
4644 4851 1
4645 4852 1
4646 4853 1
4647 4854 1
4648 4855 1
4649 4856 1
4650 4857 1
4651 4858 1
4652 4859 1
4653 4860 1
4654 4861 1
4655 4862 1
4656 4863 1
4657 4864 1
4658 4865 1
4659 4866 1
4660 4867 1
4661 4868 1
4662 4869 1
4663 4870 1
4664 4871 1
4665 4872 1
4666 4873 1
4667 4874 1
4668 4875 1
4669 4876 1
4670 4877 1
4671 4878 1
4672 4879 1
4673 4880 1
4674 4881 1
4675 4882 1
4676 4883 1
4677 4884 1
4678 4885 1
4679 4886 0.5
4679 7447 0.5
4680 4887 1
4681 4888 1
4682 4889 1
4683 4890 1
4684 4891 1
4685 4892 1
4686 4893 1
4687 4894 1
4688 4895 1
4689 4896 1
4690 4898 1
4691 4899 1
4692 4900 1
4693 4901 1
4694 4902 1
4695 4903 1
4696 4904 1
4697 4905 1
4698 4906 1
4699 4907 1
4700 4908 1
4701 4909 1
4702 4910 1
4703 4912 1
4704 4913 1
4705 4914 1
4706 4915 1
4707 4916 1
4708 4917 1
4709 4918 1
4710 4919 1
4711 4920 1
4712 4921 1
4713 4922 1
4714 4923 1
4715 4924 1
4716 4925 1
4717 4926 1
4718 4927 1
4719 4928 1
4720 4929 1
4721 4930 1
4722 4933 1
4723 4934 1
4724 4935 1
4725 4936 1
4726 4937 1
4727 4938 1
4728 4940 1
4729 4941 1
4730 4942 1
4731 4944 1
4732 4945 1
4733 4946 1
4734 4947 1
4735 4949 1
4736 4950 1
4737 4951 1
4738 4952 1
4739 4953 1
4740 4954 1
4741 4955 1
4742 4956 1
4743 4957 1
4744 4958 1
4745 4959 1
4746 4960 1
4747 4962 1
4748 4963 1
4749 4964 1
4750 4965 1
4751 4966 1
4752 4967 1
4753 4968 1
4754 4969 1
4755 4970 1
4756 4971 1
4757 4972 1
4758 4973 1
4759 4974 1
4760 4975 1
4761 4976 1
4762 4977 1
4763 4978 1
4764 4979 1
4765 4980 1
4766 4981 1
4767 4982 1
4768 4983 1
4769 4984 0.666667
4769 6826 0.333333
4770 4985 1
4771 4986 1
4772 4987 1
4773 4988 1
4774 4989 1
4775 4990 1
4776 4992 1
4777 4993 1
4778 4994 1
4779 4995 1
4780 4997 1
4781 4998 1
4782 4999 1
4783 5001 1
4784 5002 1
4785 5003 1
4786 5005 1
4787 5006 1
4788 5007 1
4789 5008 1
4790 5009 1
4791 5010 1
4792 5011 1
4793 5012 1
4794 5013 1
4795 5014 1
4796 5015 1
4797 5016 1
4798 5017 1
4799 5018 1
4800 5019 1
4801 5020 1
4802 5021 1
4803 5023 1
4804 5024 1
4805 5025 1
4806 5027 1
4807 5028 1
4808 5029 1
4809 5030 1
4810 5031 1
4811 5032 1
4812 5033 1
4813 5034 0.333333
4813 5904 0.666667
4814 5035 1
4815 5036 1
4816 5037 1
4817 5038 1
4818 5039 0.666667
4818 6747 0.333333
4819 5040 1
4820 5041 1
4821 5042 1
4822 5043 1
4823 5044 1
4824 5045 1
4825 5046 1
4826 5047 1
4827 5048 1
4828 5050 0.333333
4828 5352 0.333333
4828 5715 0.333333
4829 5051 1
4830 5052 1
4831 5053 1
4832 5054 1
4833 5055 1
4834 5056 1
4835 5057 1
4836 5058 1
4837 5059 1
4838 5060 1
4839 5061 1
4840 5062 0.714286
4840 7112 0.285714
4841 5063 1
4842 5064 1
4843 5065 0.928571
4843 7938 0.0714286
4844 5066 1
4845 5067 1
4846 5068 1
4847 5069 1
4848 5070 1
4849 5071 1
4850 5072 1
4851 5073 1
4852 5074 1
4853 5075 1
4854 5076 1
4855 5077 1
4856 5078 1
4857 5079 1
4858 5080 1
4859 5081 1
4860 5082 1
4861 5083 1
4862 5084 1
4863 5085 1
4864 5086 1
4865 5087 1
4866 5088 1
4867 5090 1
4868 5091 1
4869 5092 1
4870 5093 1
4871 5094 1
4872 5095 1
4873 5096 1
4874 5097 1
4875 5098 1
4876 5099 1
4877 5100 1
4878 5101 1
4879 5102 1
4880 5103 1
4881 5104 1
4882 5105 1
4883 5106 1
4884 5107 1
4885 5108 1
4886 5109 1
4887 5110 1
4888 5111 1
4889 5112 1
4890 5113 0.75
4890 5733 0.25
4891 5114 1
4892 5115 1
4893 5116 1
4894 5117 1
4895 5118 1
4896 5119 1
4897 5120 1
4898 5121 1
4899 5122 1
4900 5123 1
4901 5124 1
4902 5125 1
4903 5126 1
4904 5127 1
4905 5128 1
4906 5129 1
4907 5130 1
4908 5131 1
4909 5132 1
4910 5133 1
4911 5134 1
4912 5135 1
4913 5136 1
4914 5137 1
4915 5138 1
4916 5139 1
4917 5140 1
4918 5141 1
4919 5142 1
4920 5143 1
4921 5144 1
4922 5145 1
4923 5146 1
4924 5148 1
4925 5149 1
4926 5150 1
4927 5151 1
4928 5152 1
4929 5153 1
4930 5154 1
4931 5155 1
4932 5156 1
4933 5157 1
4934 5158 1
4935 5159 1
4936 5160 1
4937 5161 1
4938 5162 1
4939 5163 1
4940 3521 1
4941 5164 1
4942 5165 1
4943 5166 1
4944 5167 1
4945 5168 1
4946 5170 0.5
4946 5625 0.5
4947 5171 1
4948 5172 1
4949 5173 1
4950 5174 1
4951 5175 1
4952 5176 1
4953 5177 1
4954 5178 1
4955 5179 1
4956 5180 1
4957 5181 1
4958 5182 1
4959 5183 1
4960 5184 1
4961 5185 1
4962 5186 1
4963 5187 1
4964 5188 1
4965 5189 1
4966 5190 1
4967 5191 1
4968 5192 1
4969 5193 1
4970 5194 1
4971 5195 1
4972 5196 1
4973 5197 1
4974 5198 1
4975 5199 1
4976 5200 1
4977 5201 1
4978 5202 1
4979 5203 1
4980 5204 1
4981 5205 1
4982 5206 1
4983 5207 1
4984 5208 1
4985 5210 1
4986 5211 1
4987 5212 1
4988 5213 1
4989 5214 1
4990 5215 1
4991 5216 1
4992 5217 1
4993 5218 1
4994 5219 1
4995 5220 1
4996 5221 1
4997 5222 1
4998 5223 1
4999 5224 1
5000 5225 1
5001 5226 1
5002 5227 1
5003 5228 1
5004 5229 1
5005 5230 1
5006 5231 1
5007 5232 1
5008 5233 1
5009 5234 1
5010 5235 1
5011 5236 1
5012 5237 1
5013 5239 1
5014 5240 1
5015 5241 1
5016 5242 1
5017 5243 1
5018 5244 1
5019 5245 1
5020 5246 1
5021 5247 1
5022 5248 1
5023 5249 1
5024 5250 1
5025 5251 1
5026 5252 1
5027 5253 1
5028 5254 1
5029 5255 1
5030 5256 1
5031 5257 1
5032 5258 1
5033 5259 1
5034 5260 1
5035 5261 1
5036 5262 1
5037 5263 1
5038 5265 1
5039 5266 1
5040 5267 1
5041 5269 1
5042 5270 1
5043 5271 1
5044 5272 1
5045 5273 1
5046 5274 1
5047 5275 1
5048 5276 1
5049 5277 1
5050 5278 1
5051 5279 1
5052 5280 1
5053 5281 1
5054 5282 1
5055 5283 1
5056 5284 1
5057 5285 1
5058 5286 1
5059 5287 1
5060 5288 1
5061 5289 1
5062 5290 1
5063 5291 1
5064 5292 1
5065 5293 1
5066 5294 1
5067 5295 1
5068 5296 1
5069 5297 1
5070 5298 1
5071 5299 1
5072 5300 1
5073 5301 1
5074 5302 1
5075 1110 1
5076 5303 1
5077 5304 1
5078 5305 1
5079 5306 1
5080 5307 1
5081 5308 1
5082 5309 1
5083 5310 1
5084 5311 1
5085 5312 1
5086 5313 1
5087 5314 1
5088 5315 1
5089 5316 1
5090 5317 1
5091 5318 1
5092 5319 1
5093 5320 1
5094 5321 1
5095 5322 1
5096 5324 1
5097 5325 1
5098 5327 1
5099 5328 1
5100 5329 1
5101 5330 1
5102 5332 1
5103 5333 1
5104 5335 1
5105 5336 1
5106 5337 1
5107 5338 1
5108 5340 1
5109 5341 1
5110 5342 1
5111 5343 1
5112 5344 1
5113 5345 1
5114 5346 1
5115 5347 1
5116 5348 1
5117 5349 1
5118 5350 1
5119 5351 1
5120 5353 1
5121 5354 1
5122 5355 1
5123 5357 1
5124 5360 1
5125 5362 1
5126 5363 1
5127 5364 1
5128 5365 1
5129 5366 1
5130 5367 1
5131 5368 1
5132 5369 1
5133 5370 1
5134 5371 1
5135 5372 1
5136 5373 1
5137 5374 1
5138 5375 1
5139 5376 1
5140 5377 1
5141 5378 1
5142 5379 1
5143 5380 1
5144 5381 1
5145 5382 1
5146 5383 1
5147 5384 1
5148 5385 1
5149 5386 1
5150 5387 1
5151 5388 1
5152 5389 1
5153 5390 1
5154 5391 1
5155 5392 1
5156 5393 1
5157 5394 1
5158 5395 1
5159 5398 1
5160 5399 1
5161 5400 1
5162 5401 1
5163 5402 1
5164 5403 1
5165 5404 1
5166 5405 1
5167 5406 1
5168 5407 1
5169 5408 1
5170 5409 1
5171 5410 1
5172 5411 1
5173 5412 1
5174 5413 1
5175 5414 1
5176 5415 1
5177 5416 1
5178 5417 1
5179 5418 1
5180 5419 1
5181 5420 1
5182 5421 1
5183 5422 1
5184 5423 1
5185 5424 1
5186 5425 1
5187 5426 1
5188 5427 1
5189 5428 1
5190 5429 1
5191 5431 1
5192 5432 1
5193 5433 1
5194 5434 1
5195 5435 1
5196 5436 1
5197 5437 1
5198 5439 1
5199 5440 1
5200 5441 1
5201 5442 1
5202 5443 1
5203 5444 1
5204 5445 1
5205 5446 1
5206 5447 1
5207 5450 1
5208 5451 1
5209 5452 1
5210 5453 1
5211 5454 1
5212 5455 1
5213 5456 1
5214 5457 1
5215 5458 1
5216 5459 1
5217 5460 1
5218 5461 1
5219 5462 1
5220 5463 1
5221 5464 1
5222 5465 0.5
5222 7584 0.5
5223 5466 1
5224 5467 1
5225 5468 1
5226 5470 1
5227 5471 1
5228 5472 1
5229 5473 1
5230 5474 1
5231 5475 1
5232 5476 1
5233 5477 1
5234 5478 1
5235 5479 1
5236 5480 1
5237 5481 1
5238 5482 1
5239 5483 1
5240 5486 1
5241 5487 0.5
5241 7136 0.5
5242 5488 1
5243 5489 1
5244 5490 1
5245 5491 1
5246 5492 1
5247 5493 1
5248 5494 1
5249 5495 1
5250 5496 1
5251 5497 1
5252 5498 1
5253 5499 1
5254 5500 1
5255 5501 1
5256 5503 1
5257 5505 1
5258 5506 1
5259 5508 1
5260 5509 1
5261 5510 1
5262 5511 1
5263 5512 1
5264 5513 1
5265 5514 1
5266 5516 1
5267 5517 1
5268 5518 1
5269 5519 1
5270 5520 1
5271 5521 1
5272 5522 1
5273 5523 1
5274 5524 1
5275 5525 1
5276 5526 1
5277 5527 0.75
5277 7319 0.25
5278 5528 1
5279 5529 1
5280 5530 1
5281 5531 1
5282 5532 1
5283 5533 1
5284 5534 1
5285 5535 1
5286 5536 1
5287 5537 1
5288 3047 0.5
5288 6415 0.5
5289 5538 1
5290 5539 1
5291 5540 1
5292 5541 1
5293 5542 1
5294 5543 1
5295 5544 1
5296 5545 1
5297 5546 1
5298 5547 1
5299 5548 1
5300 5549 1
5301 5550 1
5302 5551 1
5303 5552 1
5304 5553 1
5305 5554 1
5306 5555 1
5307 5556 1
5308 5557 1
5309 5558 1
5310 5559 1
5311 5560 1
5312 5561 1
5313 5562 1
5314 5563 1
5315 5564 1
5316 5565 1
5317 5566 1
5318 5567 1
5319 5568 1
5320 5570 1
5321 5571 1
5322 5573 1
5323 5574 1
5324 5575 1
5325 5576 1
5326 5577 1
5327 5578 1
5328 5579 1
5329 5580 1
5330 5581 1
5331 5582 0.2
5331 6471 0.8
5332 5583 1
5333 5584 1
5334 5585 1
5335 5586 1
5336 5588 1
5337 5589 1
5338 5590 1
5339 5591 1
5340 5592 1
5341 5595 1
5342 5596 1
5343 5597 1
5344 5599 1
5345 5600 1
5346 5601 1
5347 5602 1
5348 5603 0.5
5348 6142 0.5
5349 5604 1
5350 5605 1
5351 5606 1
5352 5607 1
5353 5608 1
5354 5609 1
5355 5610 1
5356 5611 1
5357 5612 1
5358 5613 1
5359 5614 1
5360 5615 1
5361 5616 1
5362 5617 1
5363 5618 1
5364 5619 1
5365 5620 1
5366 5621 1
5367 5622 1
5368 5623 1
5369 5624 1
5370 5626 1
5371 5627 1
5372 5628 1
5373 5629 1
5374 5630 1
5375 5631 1
5376 5632 1
5377 5633 1
5378 5634 1
5379 5635 1
5380 5636 1
5381 5637 1
5382 5638 1
5383 5639 1
5384 5640 1
5385 5641 1
5386 5642 1
5387 5643 1
5388 5644 1
5389 5645 1
5390 5646 1
5391 5647 1
5392 5648 1
5393 5649 1
5394 5650 1
5395 5651 1
5396 5652 1
5397 5653 1
5398 5654 1
5399 5655 1
5400 5656 1
5401 5657 1
5402 5658 1
5403 5659 1
5404 5660 1
5405 5662 1
5406 5664 1
5407 5665 1
5408 5666 1
5409 5667 1
5410 5668 1
5411 5669 1
5412 5670 1
5413 5671 1
5414 5672 1
5415 5673 1
5416 5674 1
5417 5675 1
5418 5676 1
5419 5677 1
5420 5678 1
5421 5679 1
5422 5680 1
5423 5681 1
5424 5682 1
5425 5683 1
5426 5684 1
5427 5685 1
5428 5686 1
5429 5687 1
5430 5688 1
5431 5689 1
5432 5690 1
5433 5691 1
5434 5692 1
5435 5693 1
5436 5694 1
5437 5695 1
5438 5696 1
5439 5697 1
5440 5698 1
5441 5699 1
5442 5700 1
5443 5702 1
5444 5703 1
5445 5704 1
5446 5705 1
5447 5708 1
5448 5709 1
5449 5710 1
5450 5711 1
5451 5712 1
5452 5713 1
5453 5714 1
5454 5716 0.25
5454 5798 0.75
5455 5717 1
5456 5718 1
5457 5719 1
5458 5720 1
5459 5721 1
5460 5722 1
5461 5723 1
5462 5724 1
5463 5725 1
5464 5726 1
5465 5727 1
5466 5728 1
5467 5729 1
5468 5730 1
5469 5731 1
5470 5732 1
5471 5734 1
5472 5735 1
5473 5736 1
5474 5737 1
5475 5738 1
5476 5739 1
5477 5740 1
5478 5741 1
5479 5742 1
5480 5743 1
5481 5744 1
5482 5745 1
5483 5746 1
5484 5747 1
5485 5748 1
5486 5749 1
5487 5751 1
5488 5752 1
5489 5753 1
5490 5754 1
5491 5755 1
5492 5756 1
5493 5757 1
5494 5758 1
5495 5759 1
5496 5760 1
5497 5761 1
5498 5762 1
5499 2910 1
5500 5763 1
5501 5764 1
5502 5765 1
5503 5766 1
5504 5767 1
5505 5768 1
5506 5769 1
5507 5770 1
5508 5771 1
5509 5772 0.666667
5509 6868 0.333333
5510 5773 1
5511 5774 1
5512 5775 1
5513 5776 1
5514 5777 1
5515 5778 1
5516 5779 1
5517 5780 1
5518 5781 1
5519 5782 1
5520 5783 1
5521 5784 1
5522 5785 1
5523 5786 1
5524 5787 1
5525 5788 1
5526 5790 1
5527 5791 1
5528 5792 1
5529 5793 1
5530 5794 1
5531 5795 1
5532 5797 1
5533 5799 1
5534 5800 1
5535 5801 1
5536 5802 1
5537 5803 1
5538 5804 1
5539 5805 1
5540 5806 1
5541 5807 1
5542 5808 1
5543 5809 1
5544 5810 1
5545 5811 1
5546 5812 1
5547 5813 1
5548 5814 1
5549 5815 1
5550 5816 1
5551 5817 1
5552 5818 1
5553 5819 1
5554 5821 1
5555 5822 1
5556 5823 1
5557 5825 1
5558 5826 1
5559 5827 1
5560 5829 1
5561 5830 1
5562 5831 1
5563 5832 1
5564 5834 1
5565 5835 1
5566 5836 1
5567 5837 1
5568 5838 1
5569 5839 1
5570 5840 1
5571 5841 1
5572 5842 1
5573 5843 1
5574 5844 1
5575 5845 1
5576 5846 1
5577 5847 1
5578 5848 1
5579 5849 1
5580 5850 1
5581 5851 1
5582 5852 1
5583 5853 1
5584 5854 1
5585 5855 1
5586 5856 1
5587 5857 1
5588 5858 1
5589 5860 1
5590 5861 1
5591 5862 1
5592 5863 1
5593 5864 1
5594 5865 1
5595 5866 1
5596 5867 1
5597 5868 1
5598 5871 1
5599 5872 1
5600 5873 1
5601 5874 1
5602 5876 1
5603 5877 1
5604 5878 1
5605 5879 1
5606 5880 1
5607 5881 1
5608 5882 1
5609 5883 1
5610 5884 1
5611 5885 1
5612 5886 1
5613 5887 0.5
5613 7595 0.5
5614 5888 1
5615 5889 1
5616 5890 1
5617 5891 0.5
5617 6872 0.5
5618 5892 1
5619 5893 1
5620 5894 1
5621 5896 1
5622 5897 1
5623 5898 1
5624 5899 1
5625 5901 1
5626 5902 1
5627 5905 1
5628 5906 1
5629 5907 1
5630 5908 1
5631 5910 1
5632 5911 1
5633 5912 1
5634 5913 1
5635 5914 1
5636 5915 1
5637 5916 1
5638 5917 1
5639 5918 1
5640 5919 1
5641 5920 1
5642 5921 1
5643 5922 1
5644 5923 1
5645 5924 1
5646 5925 1
5647 5926 1
5648 5927 1
5649 5928 1
5650 5929 1
5651 5930 1
5652 5931 1
5653 5932 1
5654 5933 1
5655 5934 1
5656 5935 1
5657 5936 1
5658 5937 1
5659 5938 1
5660 5939 1
5661 5940 1
5662 5941 1
5663 5942 1
5664 5943 1
5665 5944 1
5666 5945 1
5667 5946 1
5668 5947 1
5669 5948 1
5670 5949 1
5671 5950 1
5672 5951 1
5673 5952 1
5674 5953 1
5675 5954 1
5676 5955 1
5677 5956 1
5678 5957 1
5679 5958 1
5680 5959 1
5681 3936 1
5682 5960 1
5683 5961 1
5684 5962 1
5685 5963 1
5686 5964 1
5687 5965 1
5688 5967 1
5689 5968 1
5690 5969 1
5691 5970 1
5692 5971 0.5
5692 7773 0.5
5693 5972 1
5694 5973 1
5695 5974 0.666667
5695 7856 0.333333
5696 5976 1
5697 5977 1
5698 5978 1
5699 5979 1
5700 5980 1
5701 5981 1
5702 5982 1
5703 5983 1
5704 5984 1
5705 5985 1
5706 5986 1
5707 5987 1
5708 5988 1
5709 5989 1
5710 5990 1
5711 5991 1
5712 5992 1
5713 5993 1
5714 5994 1
5715 5995 1
5716 5996 1
5717 5997 1
5718 5998 1
5719 5999 1
5720 6000 1
5721 6001 1
5722 6002 1
5723 6003 1
5724 6004 1
5725 6005 1
5726 6006 1
5727 6007 1
5728 6009 0.333333
5728 6997 0.666667
5729 6010 1
5730 6011 1
5731 6012 1
5732 6013 1
5733 6014 1
5734 6015 1
5735 6017 1
5736 6018 0.5
5736 7186 0.5
5737 6019 1
5738 6020 1
5739 6021 1
5740 6022 1
5741 6023 1
5742 6024 0.5
5742 6305 0.5
5743 6025 1
5744 6026 1
5745 6027 1
5746 6028 1
5747 6029 1
5748 6030 1
5749 6031 1
5750 6032 1
5751 6033 1
5752 6034 1
5753 6035 1
5754 6036 1
5755 6037 1
5756 6038 1
5757 6039 1
5758 6040 1
5759 6042 1
5760 6043 1
5761 6044 1
5762 6045 1
5763 6046 1
5764 6047 1
5765 6048 1
5766 6049 1
5767 6050 1
5768 6051 1
5769 6052 1
5770 6053 1
5771 6054 1
5772 6055 1
5773 6056 1
5774 6057 1
5775 6058 1
5776 6059 1
5777 6060 1
5778 6061 1
5779 6062 1
5780 6063 1
5781 6064 1
5782 6065 1
5783 6066 1
5784 6068 1
5785 6071 1
5786 6072 1
5787 6073 1
5788 6074 1
5789 6075 1
5790 6076 1
5791 6077 1
5792 6078 1
5793 6079 1
5794 6080 1
5795 6081 1
5796 6082 1
5797 6083 1
5798 6084 1
5799 6085 1
5800 6086 1
5801 6087 1
5802 6088 1
5803 6089 1
5804 6090 1
5805 6091 1
5806 6092 1
5807 6093 1
5808 6094 1
5809 6095 1
5810 6096 1
5811 6097 1
5812 6098 1
5813 6099 1
5814 6100 1
5815 6103 1
5816 6104 1
5817 6105 1
5818 6106 1
5819 6107 1
5820 6108 1
5821 6109 1
5822 6110 1
5823 6111 1
5824 6112 1
5825 6113 1
5826 6114 1
5827 6115 1
5828 6116 1
5829 6117 1
5830 6118 1
5831 6119 1
5832 6120 1
5833 6121 1
5834 6122 1
5835 6123 1
5836 6124 1
5837 6125 1
5838 6126 1
5839 6127 1
5840 6128 1
5841 6129 1
5842 6130 1
5843 6131 1
5844 6133 1
5845 6134 1
5846 6135 1
5847 6136 1
5848 6137 1
5849 6138 1
5850 6139 1
5851 6140 1
5852 6141 1
5853 6143 1
5854 6144 1
5855 6145 1
5856 6146 1
5857 6147 1
5858 6148 1
5859 6149 1
5860 6150 1
5861 6151 1
5862 6152 1
5863 6153 1
5864 6154 1
5865 6155 1
5866 6156 1
5867 6157 1
5868 6158 1
5869 6159 1
5870 6160 1
5871 6162 1
5872 6163 1
5873 6164 1
5874 6165 1
5875 6166 1
5876 6167 1
5877 6168 1
5878 6170 1
5879 6171 1
5880 6172 1
5881 6173 1
5882 6174 1
5883 6175 1
5884 6176 1
5885 6177 1
5886 6178 1
5887 6179 1
5888 6180 1
5889 6181 1
5890 6182 1
5891 6183 1
5892 6184 1
5893 6185 1
5894 6186 1
5895 6187 1
5896 6188 1
5897 6189 1
5898 6190 1
5899 6191 1
5900 6192 1
5901 6193 1
5902 6194 1
5903 6195 1
5904 6196 1
5905 6197 0.75
5905 6434 0.25
5906 6198 1
5907 6199 1
5908 6200 1
5909 6201 1
5910 6202 1
5911 6203 1
5912 6205 1
5913 6206 1
5914 6207 1
5915 6208 1
5916 6209 1
5917 6210 1
5918 6211 1
5919 6212 1
5920 6213 1
5921 6214 1
5922 6215 1
5923 6216 1
5924 6217 1
5925 6219 1
5926 6221 1
5927 6222 1
5928 6223 1
5929 6224 1
5930 6225 1
5931 6226 1
5932 6227 1
5933 6228 1
5934 6230 1
5935 6231 1
5936 6232 1
5937 6233 1
5938 6234 0.5
5938 6847 0.5
5939 6235 1
5940 6236 1
5941 6237 1
5942 6238 1
5943 6240 1
5944 6242 1
5945 6244 1
5946 6245 1
5947 6246 1
5948 6247 1
5949 6248 1
5950 6249 1
5951 6250 1
5952 6251 1
5953 6252 1
5954 6253 1
5955 6254 1
5956 6256 1
5957 6257 1
5958 6258 1
5959 6259 1
5960 6260 1
5961 6261 1
5962 6262 1
5963 6263 1
5964 6264 1
5965 6266 1
5966 6267 1
5967 6268 1
5968 6269 1
5969 6270 1
5970 6271 1
5971 6272 1
5972 6273 1
5973 6274 1
5974 6275 1
5975 6276 1
5976 6277 1
5977 6278 1
5978 6279 1
5979 6280 1
5980 6282 1
5981 6283 1
5982 6284 1
5983 6285 1
5984 6286 1
5985 6287 1
5986 6288 1
5987 6289 1
5988 6290 1
5989 6292 1
5990 6294 1
5991 6295 1
5992 6296 1
5993 6297 1
5994 6298 1
5995 6299 1
5996 6300 1
5997 6301 1
5998 6302 1
5999 6303 1
6000 6304 1
6001 6306 1
6002 6307 1
6003 6308 1
6004 6310 1
6005 6311 1
6006 6312 1
6007 6313 1
6008 6314 1
6009 6315 1
6010 6316 1
6011 6317 1
6012 6318 0.25
6012 6508 0.75
6013 6319 1
6014 6321 1
6015 6322 1
6016 6323 1
6017 6324 1
6018 6325 1
6019 6326 1
6020 6327 1
6021 6328 1
6022 6329 1
6023 6330 1
6024 6331 1
6025 6332 1
6026 6333 1
6027 6334 1
6028 6335 1
6029 6336 1
6030 6337 1
6031 6338 1
6032 6339 1
6033 6340 1
6034 6341 1
6035 6342 1
6036 6343 1
6037 6344 1
6038 6345 1
6039 6346 1
6040 6347 1
6041 6348 1
6042 6349 1
6043 6350 1
6044 6351 1
6045 6352 1
6046 6353 1
6047 6354 1
6048 6355 1
6049 6356 1
6050 6357 1
6051 6358 1
6052 6359 1
6053 6360 1
6054 6361 1
6055 6362 1
6056 6363 1
6057 6364 1
6058 6365 1
6059 6366 1
6060 6367 1
6061 6368 1
6062 6369 1
6063 6370 1
6064 6372 1
6065 6373 1
6066 6374 1
6067 6375 1
6068 6376 0.5
6068 7252 0.5
6069 6377 1
6070 6378 1
6071 6379 1
6072 6380 1
6073 6381 1
6074 6382 1
6075 6383 1
6076 6384 1
6077 6385 1
6078 6386 1
6079 6387 1
6080 6388 1
6081 6389 1
6082 6390 1
6083 6391 1
6084 6392 1
6085 6393 1
6086 6394 1
6087 6395 1
6088 6396 1
6089 6397 1
6090 6398 1
6091 6399 1
6092 6400 1
6093 6401 1
6094 6402 1
6095 6403 1
6096 6404 1
6097 6405 1
6098 6406 1
6099 6407 1
6100 6408 1
6101 6409 1
6102 6410 1
6103 6412 1
6104 6413 1
6105 6416 1
6106 6417 1
6107 6418 1
6108 6419 1
6109 6420 1
6110 6421 1
6111 6422 1
6112 6423 1
6113 6424 1
6114 6425 1
6115 6426 1
6116 6427 1
6117 6429 1
6118 6430 1
6119 6431 1
6120 6432 1
6121 6433 1
6122 6435 1
6123 6436 1
6124 6437 1
6125 6438 1
6126 6439 1
6127 6440 1
6128 6441 1
6129 6442 1
6130 6443 1
6131 6444 1
6132 6445 1
6133 6446 1
6134 6447 1
6135 6448 1
6136 6449 1
6137 6450 1
6138 6451 1
6139 6452 1
6140 6453 1
6141 6454 1
6142 6455 1
6143 6456 1
6144 6457 1
6145 6458 1
6146 6459 1
6147 6460 1
6148 6462 1
6149 6463 1
6150 6464 1
6151 6465 1
6152 6466 1
6153 6467 1
6154 6468 1
6155 6469 1
6156 6470 1
6157 6472 1
6158 6473 1
6159 6474 1
6160 6475 1
6161 6477 1
6162 6478 1
6163 6479 1
6164 6480 1
6165 6481 1
6166 6482 1
6167 6483 1
6168 2521 1
6169 6484 1
6170 1460 1
6171 2252 1
6172 4896 1
6173 6485 1
6174 6486 1
6175 6487 1
6176 6488 1
6177 6489 1
6178 6490 1
6179 6491 1
6180 6492 1
6181 4896 1
6182 6493 1
6183 6494 1
6184 6495 1
6185 6496 1
6186 6497 1
6187 6498 1
6188 6499 1
6189 6500 1
6190 6502 1
6191 6503 1
6192 6504 1
6193 6505 1
6194 6506 1
6195 6507 1
6196 6509 1
6197 6510 0.5
6197 7650 0.5
6198 6511 1
6199 6512 1
6200 6513 1
6201 6514 1
6202 6515 1
6203 6516 1
6204 6517 1
6205 6518 1
6206 6519 1
6207 6520 1
6208 6521 1
6209 6522 1
6210 6523 1
6211 6524 1
6212 6525 1
6213 6526 1
6214 6527 1
6215 4898 1
6216 6528 1
6217 6529 1
6218 6530 1
6219 6531 1
6220 6532 1
6221 6533 1
6222 6534 1
6223 6535 1
6224 6536 1
6225 6537 1
6226 6538 1
6227 6539 1
6228 6540 1
6229 6541 1
6230 6542 1
6231 6543 1
6232 6544 1
6233 6545 1
6234 6546 1
6235 6547 1
6236 6548 1
6237 6549 1
6238 6550 1
6239 6551 1
6240 6552 1
6241 6553 1
6242 6554 1
6243 6555 1
6244 6556 1
6245 6559 1
6246 6561 1
6247 6562 1
6248 6563 1
6249 6564 1
6250 6565 1
6251 6566 1
6252 6568 1
6253 6569 1
6254 6570 1
6255 6571 1
6256 6572 1
6257 6573 1
6258 6574 1
6259 6575 1
6260 6576 1
6261 6579 1
6262 6580 1
6263 6581 1
6264 6582 1
6265 6583 1
6266 6584 1
6267 6586 1
6268 6587 1
6269 6588 1
6270 6589 1
6271 6590 1
6272 6591 1
6273 6593 1
6274 253 0.5
6274 6656 0.5
6275 6595 1
6276 6596 1
6277 6597 1
6278 6599 1
6279 6600 1
6280 6601 1
6281 6602 1
6282 6603 1
6283 6604 1
6284 6605 1
6285 6606 1
6286 6607 1
6287 6608 1
6288 6609 1
6289 6610 1
6290 6611 1
6291 6612 1
6292 6613 1
6293 6614 1
6294 6615 1
6295 6616 1
6296 6617 1
6297 6618 1
6298 6619 1
6299 6620 1
6300 6621 1
6301 6622 1
6302 6623 1
6303 6624 1
6304 6625 1
6305 6626 1
6306 6627 1
6307 6628 1
6308 6629 1
6309 6630 1
6310 6631 1
6311 6632 1
6312 6633 1
6313 6634 1
6314 6635 1
6315 6636 1
6316 6637 1
6317 6638 1
6318 6639 1
6319 6640 1
6320 6641 1
6321 6642 1
6322 6643 1
6323 6644 1
6324 6645 1
6325 6646 1
6326 6647 1
6327 6648 1
6328 6649 1
6329 6650 1
6330 6651 1
6331 6652 1
6332 6653 1
6333 6654 1
6334 6655 1
6335 6657 1
6336 6658 1
6337 6659 1
6338 6660 1
6339 6661 1
6340 6662 1
6341 6663 1
6342 6664 1
6343 6665 1
6344 6666 1
6345 6667 1
6346 6668 1
6347 6669 1
6348 6670 1
6349 6671 1
6350 6672 1
6351 6673 0.5
6351 7608 0.5
6352 6674 1
6353 6675 1
6354 6676 1
6355 6677 1
6356 6678 1
6357 6679 1
6358 6681 1
6359 6682 1
6360 6683 1
6361 6684 1
6362 6685 1
6363 6686 1
6364 6687 1
6365 6688 1
6366 6689 1
6367 6690 1
6368 6691 1
6369 6692 1
6370 6693 1
6371 6694 1
6372 6696 1
6373 6697 1
6374 6698 1
6375 6699 1
6376 6700 1
6377 6701 1
6378 6702 1
6379 6703 1
6380 6704 1
6381 6706 1
6382 6707 1
6383 6708 1
6384 6709 1
6385 6710 1
6386 6711 1
6387 6712 1
6388 6713 1
6389 6714 1
6390 6715 1
6391 6716 1
6392 6717 1
6393 6718 1
6394 6719 1
6395 6720 1
6396 6721 1
6397 6722 1
6398 6723 0.125
6398 7276 0.875
6399 6724 1
6400 6725 1
6401 6728 1
6402 6729 1
6403 6730 1
6404 6731 1
6405 6732 1
6406 6733 1
6407 6734 1
6408 6735 1
6409 6736 1
6410 6737 1
6411 6738 1
6412 6739 1
6413 6740 1
6414 6741 1
6415 6742 1
6416 6743 1
6417 6744 1
6418 6745 1
6419 6746 1
6420 6748 1
6421 6749 1
6422 6750 1
6423 6751 1
6424 6752 1
6425 6753 1
6426 6754 1
6427 6755 1
6428 6756 1
6429 6757 1
6430 6758 1
6431 6759 1
6432 6760 1
6433 6761 1
6434 6762 1
6435 6763 1
6436 6764 1
6437 6765 1
6438 6766 1
6439 6767 1
6440 6768 1
6441 6769 1
6442 6770 1
6443 6771 1
6444 6772 1
6445 6773 1
6446 6774 1
6447 6775 1
6448 6776 1
6449 6777 1
6450 6778 1
6451 6779 1
6452 6780 1
6453 6781 1
6454 6782 1
6455 6783 1
6456 6784 1
6457 6785 1
6458 6786 1
6459 6787 1
6460 6788 1
6461 6789 1
6462 6790 1
6463 6791 1
6464 6792 1
6465 6793 1
6466 6794 1
6467 6795 1
6468 6796 1
6469 6797 1
6470 6798 1
6471 6799 1
6472 6800 1
6473 6801 1
6474 6802 1
6475 6803 1
6476 6804 1
6477 6805 1
6478 6806 1
6479 6807 1
6480 6808 1
6481 6809 1
6482 6810 1
6483 6812 1
6484 6813 1
6485 6814 1
6486 6816 1
6487 544 1
6488 6817 1
6489 6818 1
6490 6819 1
6491 6820 1
6492 6821 1
6493 6822 1
6494 6823 1
6495 6824 1
6496 6825 1
6497 6827 1
6498 6828 1
6499 6829 1
6500 6830 1
6501 6831 1
6502 6832 1
6503 6833 1
6504 6834 1
6505 6835 1
6506 6836 1
6507 6837 1
6508 6838 1
6509 6839 1
6510 6840 1
6511 6841 1
6512 6842 1
6513 6843 1
6514 6844 1
6515 6845 1
6516 6846 1
6517 6848 1
6518 6849 1
6519 6850 1
6520 6851 1
6521 6853 1
6522 6854 1
6523 6855 1
6524 6856 1
6525 6857 1
6526 6858 1
6527 6859 1
6528 6860 1
6529 6861 1
6530 6862 1
6531 6863 1
6532 6864 1
6533 6865 1
6534 6866 1
6535 6867 1
6536 6869 1
6537 6870 1
6538 6873 1
6539 6874 1
6540 6875 1
6541 6876 1
6542 6877 1
6543 6878 1
6544 6879 1
6545 6880 1
6546 6881 1
6547 6883 1
6548 6884 1
6549 6885 1
6550 6886 1
6551 6887 1
6552 6888 1
6553 6889 1
6554 6890 1
6555 6891 1
6556 6892 1
6557 6893 1
6558 6894 1
6559 6895 1
6560 6896 1
6561 6897 1
6562 6898 1
6563 6899 1
6564 6900 1
6565 6901 1
6566 6902 1
6567 6903 1
6568 6904 1
6569 6905 1
6570 6906 1
6571 6907 1
6572 6908 1
6573 6909 1
6574 6910 1
6575 212 1
6576 6911 1
6577 6912 1
6578 6913 1
6579 6914 1
6580 6915 1
6581 6916 1
6582 6917 1
6583 6918 1
6584 6919 1
6585 6920 1
6586 6921 1
6587 6922 1
6588 6923 1
6589 6924 1
6590 6925 1
6591 6926 1
6592 6927 1
6593 6928 1
6594 6929 1
6595 6930 1
6596 6931 1
6597 6932 1
6598 6933 1
6599 6934 1
6600 6935 1
6601 6936 1
6602 6937 1
6603 6938 1
6604 6939 1
6605 6940 1
6606 6941 1
6607 6942 1
6608 6943 1
6609 6944 1
6610 6945 1
6611 6946 1
6612 6947 1
6613 6948 1
6614 6949 1
6615 6950 1
6616 6951 1
6617 6952 1
6618 6953 1
6619 6954 1
6620 6955 1
6621 6956 1
6622 6957 1
6623 6958 1
6624 6959 1
6625 6960 1
6626 6961 1
6627 6962 1
6628 6963 1
6629 6964 1
6630 6965 1
6631 6966 1
6632 6967 1
6633 6968 1
6634 6969 1
6635 6970 1
6636 6971 1
6637 6972 1
6638 6973 1
6639 6974 1
6640 6975 1
6641 6976 1
6642 6977 1
6643 6978 1
6644 6979 1
6645 6980 1
6646 6981 1
6647 6982 1
6648 6984 1
6649 6986 1
6650 6987 1
6651 6988 1
6652 6989 1
6653 6991 1
6654 6993 1
6655 6994 1
6656 6995 1
6657 6996 1
6658 6998 1
6659 6999 1
6660 7000 1
6661 7001 1
6662 7002 1
6663 7003 1
6664 7004 1
6665 7005 1
6666 7006 1
6667 7007 1
6668 7008 1
6669 7009 1
6670 7010 1
6671 7011 1
6672 7012 1
6673 7013 1
6674 7014 1
6675 7015 1
6676 7016 1
6677 7017 1
6678 7018 1
6679 7019 1
6680 7020 1
6681 7021 1
6682 7022 1
6683 7023 1
6684 7024 1
6685 7025 1
6686 7026 1
6687 7027 1
6688 7028 1
6689 7029 1
6690 7030 1
6691 7031 1
6692 7032 1
6693 7033 1
6694 7034 1
6695 7035 1
6696 7036 1
6697 7037 1
6698 7038 1
6699 7039 0.666667
6699 7848 0.333333
6700 7040 1
6701 7041 1
6702 7042 1
6703 7043 1
6704 7044 1
6705 7045 1
6706 7046 1
6707 7047 1
6708 7048 1
6709 7049 1
6710 7050 1
6711 7051 1
6712 7052 1
6713 7053 1
6714 7054 1
6715 7055 1
6716 7056 1
6717 7057 1
6718 7058 1
6719 7059 1
6720 7060 1
6721 7061 1
6722 7062 1
6723 7063 1
6724 7064 1
6725 7065 1
6726 7066 1
6727 7067 1
6728 7068 1
6729 7069 1
6730 7070 1
6731 7071 1
6732 7072 1
6733 7073 1
6734 7074 1
6735 7075 1
6736 7076 1
6737 7077 1
6738 7078 1
6739 7079 1
6740 7080 1
6741 7081 0.75
6741 7508 0.25
6742 7082 1
6743 7083 1
6744 7084 1
6745 7085 1
6746 7087 1
6747 7088 1
6748 7089 1
6749 7090 1
6750 7091 1
6751 7092 1
6752 7093 1
6753 7094 1
6754 7095 1
6755 7096 1
6756 7097 1
6757 7098 1
6758 7099 1
6759 7100 1
6760 7101 1
6761 7102 1
6762 7103 1
6763 7104 1
6764 7105 1
6765 7106 1
6766 7108 1
6767 7109 1
6768 7110 1
6769 7111 1
6770 7113 1
6771 7114 1
6772 7115 1
6773 7116 1
6774 7117 1
6775 7118 1
6776 7119 1
6777 7120 1
6778 7121 1
6779 7122 1
6780 7123 1
6781 7124 0.666667
6781 7201 0.333333
6782 7125 1
6783 7127 1
6784 7128 1
6785 7129 1
6786 7130 1
6787 7131 1
6788 7132 1
6789 7133 1
6790 7134 1
6791 7135 1
6792 7137 1
6793 7138 1
6794 7139 1
6795 7140 1
6796 7142 1
6797 7143 1
6798 7144 1
6799 7145 1
6800 7146 1
6801 7147 1
6802 7148 1
6803 7149 0.5
6803 7566 0.5
6804 7150 1
6805 7151 1
6806 7152 1
6807 7153 1
6808 7154 1
6809 7155 1
6810 7156 1
6811 7157 1
6812 7158 1
6813 7160 1
6814 7161 1
6815 7162 1
6816 7163 1
6817 7164 1
6818 7165 1
6819 7166 1
6820 7167 1
6821 7169 0.5
6821 7399 0.5
6822 7170 1
6823 7171 1
6824 7172 1
6825 7173 1
6826 7174 1
6827 7175 1
6828 7176 1
6829 7177 1
6830 7178 1
6831 7179 1
6832 7180 1
6833 7181 1
6834 7182 1
6835 7183 1
6836 7184 1
6837 7185 1
6838 7187 1
6839 7188 1
6840 7189 1
6841 7190 1
6842 7191 1
6843 7192 1
6844 7193 1
6845 7194 1
6846 7195 1
6847 7196 1
6848 7197 1
6849 7198 1
6850 7199 1
6851 7200 1
6852 7203 1
6853 7204 1
6854 7205 1
6855 7206 1
6856 7207 1
6857 7209 1
6858 7210 1
6859 7211 1
6860 7212 1
6861 7213 1
6862 7214 1
6863 7215 1
6864 7216 1
6865 7217 1
6866 7218 1
6867 7220 1
6868 7222 1
6869 7225 1
6870 7226 1
6871 7227 1
6872 7228 1
6873 7229 1
6874 7230 1
6875 7231 1
6876 7232 1
6877 7233 1
6878 7234 1
6879 7235 1
6880 7236 1
6881 7237 1
6882 7238 1
6883 7239 1
6884 7240 1
6885 7241 1
6886 7242 1
6887 7243 1
6888 7244 1
6889 7245 1
6890 7246 1
6891 7247 1
6892 7248 1
6893 7249 1
6894 7250 1
6895 7251 1
6896 7253 1
6897 7254 1
6898 7255 1
6899 7256 1
6900 7257 1
6901 7258 1
6902 7259 1
6903 7260 1
6904 7261 1
6905 7262 1
6906 7263 1
6907 7264 1
6908 7265 1
6909 7266 1
6910 7267 1
6911 7268 1
6912 7269 1
6913 7270 1
6914 7271 1
6915 7272 1
6916 7273 1
6917 7274 1
6918 7275 1
6919 7277 1
6920 7278 1
6921 7280 1
6922 7281 1
6923 7282 1
6924 7283 1
6925 7286 1
6926 7287 1
6927 7288 1
6928 7289 1
6929 7290 1
6930 7291 1
6931 7292 1
6932 7293 1
6933 7294 1
6934 7295 1
6935 7296 1
6936 7297 1
6937 7298 1
6938 7299 1
6939 7301 1
6940 7302 1
6941 7303 1
6942 7304 1
6943 7305 1
6944 7306 1
6945 7307 1
6946 7308 1
6947 7309 1
6948 7310 1
6949 7311 1
6950 7312 1
6951 7313 1
6952 7314 1
6953 7315 1
6954 7316 1
6955 7317 1
6956 7318 1
6957 7320 1
6958 7321 1
6959 7322 1
6960 7323 1
6961 7324 1
6962 7325 1
6963 7326 1
6964 7327 1
6965 7328 1
6966 7329 1
6967 7330 1
6968 7331 1
6969 7332 1
6970 7333 1
6971 7334 1
6972 7335 1
6973 7336 1
6974 7337 1
6975 7338 1
6976 7339 1
6977 7340 1
6978 7342 1
6979 7343 1
6980 7344 1
6981 7345 1
6982 7346 1
6983 7347 1
6984 7348 1
6985 7349 1
6986 7350 1
6987 7351 1
6988 7352 1
6989 7354 1
6990 7355 1
6991 7356 1
6992 7357 1
6993 7358 1
6994 7359 1
6995 7360 1
6996 7361 1
6997 7362 1
6998 7363 1
6999 7364 1
7000 7366 1
7001 7367 1
7002 7368 1
7003 7369 1
7004 7370 1
7005 7371 1
7006 7372 1
7007 7373 1
7008 7374 1
7009 7375 1
7010 7376 1
7011 7379 1
7012 7380 1
7013 7381 1
7014 7382 1
7015 7383 1
7016 7384 1
7017 7385 1
7018 7386 1
7019 7387 1
7020 7388 1
7021 7389 1
7022 7390 1
7023 7391 1
7024 7392 1
7025 7393 1
7026 7394 1
7027 7395 1
7028 7397 1
7029 7398 1
7030 7400 1
7031 5 1
7032 45 1
7033 7401 1
7034 5817 1
7035 7338 1
7036 6157 1
7037 7343 1
7038 7339 1
7039 7404 1
7040 7405 1
7041 7406 1
7042 7407 1
7043 7408 1
7044 7409 1
7045 7410 1
7046 7411 1
7047 7412 1
7048 7413 1
7049 7414 1
7050 7415 1
7051 7416 1
7052 7417 1
7053 7418 1
7054 7419 1
7055 7421 1
7056 7422 1
7057 7423 1
7058 7424 1
7059 7425 1
7060 7426 1
7061 7427 1
7062 7428 1
7063 7429 1
7064 7430 1
7065 7431 1
7066 7432 1
7067 7433 1
7068 7434 1
7069 7435 1
7070 7436 1
7071 7437 1
7072 7438 1
7073 7439 1
7074 7440 1
7075 7441 1
7076 7442 1
7077 7443 1
7078 7444 1
7079 7445 1
7080 7446 1
7081 7449 1
7082 7450 1
7083 7451 1
7084 7452 1
7085 7453 1
7086 7454 1
7087 7455 1
7088 7456 1
7089 7457 1
7090 7459 1
7091 7460 1
7092 7461 1
7093 7462 1
7094 7463 1
7095 7464 1
7096 7465 1
7097 7466 1
7098 7467 1
7099 7468 1
7100 7469 1
7101 7470 1
7102 7471 1
7103 7472 1
7104 7473 1
7105 7475 1
7106 7476 1
7107 7477 1
7108 7478 1
7109 7479 1
7110 7480 1
7111 7481 1
7112 7482 1
7113 7484 1
7114 7485 1
7115 7486 1
7116 7487 1
7117 7488 1
7118 7489 1
7119 7490 1
7120 7491 1
7121 7492 1
7122 7493 1
7123 7494 1
7124 7495 1
7125 7496 1
7126 7497 1
7127 7498 1
7128 7499 1
7129 7500 1
7130 7501 1
7131 7502 1
7132 7503 1
7133 7504 1
7134 7505 1
7135 7506 1
7136 7507 1
7137 7509 1
7138 7510 1
7139 7511 1
7140 7512 1
7141 7513 1
7142 7514 1
7143 7516 1
7144 7517 1
7145 7518 1
7146 7519 1
7147 7520 1
7148 7521 1
7149 7522 1
7150 7523 1
7151 7524 1
7152 7525 1
7153 7526 1
7154 7527 1
7155 7528 1
7156 7530 1
7157 7531 1
7158 7532 1
7159 7533 1
7160 7534 1
7161 7535 1
7162 7537 1
7163 7538 1
7164 7539 1
7165 7540 1
7166 7541 1
7167 7542 1
7168 7543 1
7169 7544 1
7170 7545 1
7171 7546 1
7172 7547 1
7173 7548 1
7174 7549 1
7175 7550 1
7176 7551 1
7177 7552 1
7178 7553 1
7179 7554 1
7180 7555 1
7181 7556 1
7182 7557 1
7183 7558 1
7184 7559 1
7185 7560 1
7186 7561 1
7187 7562 1
7188 7563 1
7189 7565 1
7190 7567 1
7191 7568 1
7192 7569 1
7193 7570 1
7194 7571 1
7195 7572 1
7196 7573 1
7197 7574 1
7198 7575 1
7199 7576 1
7200 7577 1
7201 7578 1
7202 7579 1
7203 7580 1
7204 7581 1
7205 7582 1
7206 7583 1
7207 7585 1
7208 7586 1
7209 7587 1
7210 7588 1
7211 7589 1
7212 7590 1
7213 7591 1
7214 7592 1
7215 7593 1
7216 7594 1
7217 7596 1
7218 7597 1
7219 7598 1
7220 7599 1
7221 7600 1
7222 7601 1
7223 7602 1
7224 7603 1
7225 7604 1
7226 7606 1
7227 7607 1
7228 7609 1
7229 7610 1
7230 7611 1
7231 7612 1
7232 7613 1
7233 7615 1
7234 7616 1
7235 7617 1
7236 7618 1
7237 7619 1
7238 7620 1
7239 7621 1
7240 7622 1
7241 7623 1
7242 7624 1
7243 7625 1
7244 7626 1
7245 7627 1
7246 7628 1
7247 7629 1
7248 7630 1
7249 7631 1
7250 7632 1
7251 7633 1
7252 7634 1
7253 7635 1
7254 7636 1
7255 7637 1
7256 7638 1
7257 7639 1
7258 7640 1
7259 7641 1
7260 7642 1
7261 7643 1
7262 7644 1
7263 7645 1
7264 7646 1
7265 7647 1
7266 7648 1
7267 7649 1
7268 7651 1
7269 7652 1
7270 7654 1
7271 7655 1
7272 7656 1
7273 7657 1
7274 7658 1
7275 7659 1
7276 7660 1
7277 7661 1
7278 7662 1
7279 7663 1
7280 7664 1
7281 7665 1
7282 7666 1
7283 7667 1
7284 7668 1
7285 7669 1
7286 7670 1
7287 7671 0.333333
7287 7747 0.666667
7288 7672 1
7289 7673 1
7290 7674 1
7291 7675 1
7292 7676 1
7293 7677 1
7294 7678 1
7295 7679 1
7296 7680 1
7297 7681 1
7298 7682 1
7299 7683 1
7300 7684 1
7301 7685 1
7302 7686 1
7303 7687 1
7304 7689 1
7305 7690 1
7306 7691 1
7307 7692 1
7308 7693 1
7309 7694 1
7310 7695 1
7311 7696 1
7312 7697 1
7313 7698 1
7314 7699 1
7315 7700 1
7316 7701 1
7317 7702 1
7318 7703 1
7319 7704 1
7320 7705 1
7321 7706 1
7322 7707 1
7323 7708 1
7324 7709 1
7325 7710 1
7326 7711 1
7327 7712 1
7328 7713 1
7329 7714 1
7330 7715 1
7331 7716 1
7332 7717 1
7333 7718 1
7334 7719 1
7335 7720 1
7336 7721 1
7337 7722 1
7338 7723 1
7339 7725 1
7340 7726 1
7341 7728 1
7342 7729 1
7343 7730 1
7344 7731 1
7345 7732 1
7346 7733 1
7347 7734 1
7348 7735 1
7349 7736 1
7350 7737 1
7351 7738 1
7352 7740 1
7353 7741 1
7354 7742 1
7355 7743 1
7356 7744 1
7357 7745 1
7358 7746 1
7359 7748 1
7360 7749 1
7361 7750 1
7362 6882 1
7363 7751 1
7364 7752 1
7365 7753 1
7366 7754 1
7367 7755 1
7368 7757 1
7369 7758 1
7370 7759 1
7371 7760 1
7372 7761 1
7373 7762 1
7374 7763 1
7375 7764 1
7376 7765 1
7377 7766 1
7378 7767 1
7379 7768 1
7380 7769 1
7381 7770 1
7382 7771 1
7383 7772 1
7384 7774 1
7385 7775 1
7386 7776 1
7387 7777 1
7388 7778 1
7389 7779 1
7390 7781 1
7391 7782 1
7392 7783 1
7393 7784 1
7394 7786 1
7395 7787 1
7396 7788 1
7397 7789 1
7398 7790 1
7399 7791 1
7400 7792 1
7401 7793 1
7402 7794 1
7403 7795 1
7404 7796 1
7405 7797 1
7406 7798 1
7407 7799 1
7408 7800 1
7409 7801 1
7410 7802 1
7411 7803 1
7412 7805 1
7413 7806 1
7414 7807 1
7415 7808 1
7416 7809 1
7417 7810 1
7418 7811 1
7419 7812 1
7420 7813 1
7421 7814 1
7422 7815 1
7423 7816 1
7424 7817 1
7425 7818 1
7426 7819 1
7427 7820 1
7428 7821 1
7429 7822 1
7430 7823 1
7431 7824 1
7432 7825 1
7433 7826 1
7434 7827 1
7435 7828 1
7436 7829 1
7437 7830 1
7438 7831 1
7439 7832 1
7440 7833 1
7441 7834 1
7442 7835 1
7443 7836 1
7444 7837 1
7445 7838 1
7446 7839 1
7447 7840 1
7448 7842 0.5
7448 7854 0.5
7449 7844 1
7450 7845 1
7451 7846 1
7452 7847 1
7453 7849 1
7454 7850 1
7455 7851 1
7456 7852 1
7457 7853 1
7458 7855 1
7459 7857 1
7460 7858 1
7461 7859 1
7462 7860 1
7463 7861 1
7464 7862 1
7465 7863 1
7466 7864 1
7467 7865 1
7468 7866 1
7469 7867 1
7470 7868 1
7471 7869 1
7472 7870 1
7473 7871 1
7474 7872 1
7475 7874 1
7476 7875 1
7477 7876 1
7478 7877 1
7479 7878 1
7480 7880 1
7481 7882 1
7482 7883 1
7483 7884 1
7484 7885 1
7485 7886 1
7486 7887 1
7487 7888 1
7488 7889 1
7489 7890 1
7490 7891 1
7491 7892 1
7492 7893 1
7493 7894 1
7494 7895 1
7495 7896 1
7496 7897 1
7497 7898 1
7498 7899 1
7499 7900 1
7500 7901 1
7501 7902 1
7502 7903 1
7503 7904 1
7504 7905 1
7505 7906 1
7506 7907 1
7507 7908 1
7508 7910 1
7509 7911 1
7510 7913 1
7511 7914 1
7512 7915 1
7513 7916 1
7514 7917 1
7515 7918 1
7516 7919 1
7517 7920 1
7518 7921 1
7519 7923 1
7520 7924 1
7521 7925 1
7522 7926 1
7523 7927 1
7524 7928 1
7525 7929 1
7526 7931 1
7527 7932 1
7528 7933 1
7529 7934 1
7530 7935 1
7531 7936 1
7532 7937 1
7533 7940 1
7534 7941 1
7535 7942 1
7536 7943 1
7537 7944 1
7538 7945 1
7539 7946 1
7540 7947 1
7541 7948 1
7542 7949 1
7543 7950 1
7544 7951 1
7545 7952 1
7546 7953 1
7547 7954 1
7548 7955 1
7549 7956 1
7550 7957 1
7551 7958 1
7552 7959 1
7553 7960 1
7554 7961 1
7555 7962 1
7556 7963 1
7557 7964 1
7558 7965 1
7559 7966 1
7560 7967 1
7561 7968 1
7562 7969 1
7563 7970 1
7564 7971 1
7565 7972 1
7566 7973 1
7567 7974 1
7568 7975 1
7569 7976 1
7570 7977 1
7571 7978 1
7572 7979 1
7573 7980 1
7574 7981 1
7575 7982 1
7576 7983 1
7577 7984 1
7578 7985 1
7579 7213 1
7580 7987 1
7581 7988 1
7582 7989 1
7583 7990 1
7584 7991 1
7585 7992 1
7586 7993 1
7587 7994 1
7588 7995 1
7589 7996 1
7590 7998 1
7591 7999 1
7592 464 1
7593 8000 1
7594 8001 1
7595 8002 1
7596 8003 1
7597 8004 1
