ang1 ang4 0.0833333
eng1 ang4 0.0208333
ian3 ang4 0.0208333
an2 ang4 0.0208333
ang2 ang4 0.0208333
ong1 ang4 0.0208333
ang4 ang4 0.7500000
ang3 ang4 0.0625000
i2 i4 0.0838926
i4 i4 0.7550336
ing1 i4 0.0033557
u4 i4 0.0067114
eng1 i4 0.0033557
e0 i4 0.0201342
NULL i4 0.0033557
i1 i4 0.0402685
i0 i4 0.0469799
i3 i4 0.0369128
ai4 u4 0.0028571
uo3 u4 0.0028571
un4 u4 0.0028571
i0 u4 0.0514286
u1 u4 0.0085714
u2 u4 0.0114286
ai2 u4 0.0028571
u0 u4 0.0200000
uo0 u4 0.0028571
uo2 u4 0.0028571
uo1 u4 0.0057143
i4 u4 0.0514286
un1 u4 0.0514286
iu4 u4 0.0028571
ei4 u4 0.0028571
ei2 u4 0.2514286
u4 u4 0.5514286
u3 u4 0.0285714
ai4 nai4 1.0000000
iao1 ian2 0.0625000
ian1 ian2 0.0625000
ian2 ian2 0.8125000
uan2 ian2 0.0625000
ui4 uo4 0.0111111
uo2 uo4 0.0222222
uo4 uo4 0.9333333
u4 uo4 0.0222222
e2 uo4 0.0111111
ua2 ua2 1.0000000
en3 eng1 0.0400000
eng3 eng1 0.0400000
e3 eng1 0.0400000
eng1 eng1 0.9200000
i4 ie4 0.0059524
ian1 ie4 0.0059524
i2 ie4 0.0892857
ie1 ie4 0.0535714
ie2 ie4 0.0119048
ie4 ie4 0.0178571
e4 ie4 0.8095238
ie3 ie4 0.0059524
e0 e 1.0000000
i0 i1 0.0569948
i3 i1 0.0725389
i1 i1 0.4611399
iang3 i1 0.0025907
e0 i1 0.3471503
ian1 i1 0.0025907
i4 i1 0.0310881
i2 i1 0.0259067
uan4 uan2 0.0714286
uan3 uan2 0.0714286
uan2 uan2 0.8571429
bu4yao4 biao3 1.0000000
en3 eng4 0.1250000
eng3 eng4 0.1875000
eng1 eng4 0.0625000
en1 eng4 0.1250000
eng4 eng4 0.5000000
ua4 ua4 0.4000000
ua1 ua4 0.6000000
sh zh 0.0070093
z zh 0.5070093
j zh 0.0023364
zh zh 0.4602804
ch zh 0.0093458
t zh 0.0023364
d zh 0.0023364
n zh 0.0093458
o4 o4 0.6666667
ei2 o4 0.0833333
o3 o4 0.1666667
e0 o4 0.0833333
d d 0.9490446
t d 0.0360934
f d 0.0021231
g d 0.0021231
x d 0.0021231
c d 0.0021231
sh d 0.0021231
z d 0.0042463
ei2 e0 0.0233645
i4 e0 0.0093458
iao3 e0 0.0046729
i2 e0 0.0093458
a1 e0 0.0467290
i1 e0 0.0046729
e2 e0 0.0186916
ao3 e0 0.0046729
ei3 e0 0.0373832
e0 e0 0.8317757
e4 e0 0.0093458
m m 0.9986486
b m 0.0013514
m w 0.0083333
b w 0.0083333
w w 0.8083333
wo3 w 0.1750000
ei2 ei1 0.0204082
e0 ei1 0.0204082
ei1 ei1 0.9591837
ao4 a2 0.0138889
a1 a2 0.6805556
a4 a2 0.0138889
o2 a2 0.2222222
a2 a2 0.0694444
i3 en4 0.2089552
en4 en4 0.5522388
eng1 en4 0.0447761
ei1 en4 0.0149254
ei4 en4 0.0447761
en0 en4 0.0149254
en3 en4 0.0447761
en2 en4 0.0298507
eng4 en4 0.0149254
a4 en4 0.0298507
a3 a0 0.0338983
a0 a0 0.0508475
a1 a0 0.9152542
iao2 iao2 0.2500000
iao4 iao2 0.1250000
ue2 iao2 0.6250000
e4 uo1 0.0232558
uo4 uo1 0.1395349
uo2 uo1 0.0465116
uo1 uo1 0.2558140
u1 uo1 0.0232558
e1 uo1 0.3953488
ou4 uo1 0.0232558
ou1 uo1 0.0232558
ao2 uo1 0.0697674
ang4 iang4 0.0298507
iang3 iang4 0.0149254
zhe4yang4 iang4 0.1791045
iang4 iang4 0.7761194
in3 in3 0.6666667
in4 in3 0.6666667
ing2 in3 0.3333333
ch ch 0.9497207
w ch 0.0055866
NULL ch 0.0055866
z ch 0.0055866
zh ch 0.0111732
sh ch 0.0111732
c ch 0.0111732
iang4 iang1 0.3333333
iang3 iang1 0.1666667
iang1 iang1 0.5000000
zhe4yang4 jiang4 1.0000000
v4 v4 1.0000000
e1 e4 0.0065789
u1 e4 0.0065789
en2 e4 0.0065789
ai1 e4 0.0065789
ei4 e4 0.0065789
e4 e4 0.8092105
wo3 e4 0.0197368
e0 e4 0.0328947
a1 e4 0.0723684
e3 e4 0.0328947
r r 0.9428571
q r 0.0285714
l r 0.0285714
u2 o3 1.0000000
e0 o3 1.0000000
ian1 ian3 0.0526316
ian4 ian3 0.1578947
e0 ian3 0.0526316
i3 ian3 0.0526316
ian3 ian3 0.5789474
ie1 ian3 0.0526316
i1 ian3 0.0526316
ian1 in1 0.0217391
in1 in1 0.7608696
e4 in1 0.0217391
in3 in1 0.0217391
in4 in1 0.0217391
ing4 in1 0.0217391
ing1 in1 0.1304348
eng2 iao4 0.0384615
iao4 iao4 0.8076923
iang4 iao4 0.0384615
iao3 iao4 0.1153846
c c 0.5315315
j c 0.0090090
z c 0.0180180
ch c 0.4414414
ua1 ua1 0.2000000
ua2 ua1 0.4000000
ua4 ua1 0.2000000
ua3 ua1 0.2000000
iang1 iang3 0.2000000
iang3 iang3 0.2000000
ian4 iang3 0.0666667
ing2 iang3 0.0666667
iang4 iang3 0.4666667
ei1 an2 0.0126582
an4 an2 0.0126582
ang4 an2 0.0126582
an3 an2 0.0379747
ai2 an2 0.0126582
an2 an2 0.9113924
f f 0.6193182
h f 0.3806818
ie1 ie3 0.3333333
ie3 ie3 0.6666667
ui3 in4 0.0833333
in1 in4 0.0833333
in4 in4 0.3333333
ing4 in4 0.5000000
ei4 ei0 0.5000000
ei1 ei0 0.5000000
iu4 iu1 0.2857143
iu1 iu1 0.7142857
ong3 ong1 0.0142857
eng1 ong1 0.1857143
ong1 ong1 0.6714286
ong2 ong1 0.1142857
ong4 ong1 0.0142857
uang4 uang4 1.0000000
iao3 iao1 0.1052632
iao1 iao1 0.0526316
a1 iao1 0.0526316
iao4 iao1 0.7894737
iong2 iong2 1.0000000
uan3 uan3 0.4000000
uan4 uan3 0.2000000
ian1 uan3 0.2000000
uan1 uan3 0.2000000
uai1 uai3 1.0000000
e4 e3 0.0967742
e0 e3 0.0322581
e3 e3 0.8709677
an2 a1 0.0949367
a0 a1 0.1835443
a1 a1 0.4240506
a3 a1 0.0063291
a2 a1 0.0063291
ie4 a1 0.0063291
e0 a1 0.0379747
e3 a1 0.0379747
ao1 a1 0.0063291
o4 a1 0.0063291
u4 a1 0.1265823
ai2 a1 0.0063291
a4 a1 0.1012658
b b 0.9974874
m b 0.0025126
ong2 ong2 0.8139535
ong1 ong2 0.0697674
ong3 ong2 0.0465116
i4 ong2 0.0232558
iang4 ong2 0.0232558
ou2 ong2 0.0232558
uan4 uan1 0.0833333
uan1 uan1 0.7500000
uang1 uan1 0.0833333
uan3 uan1 0.0416667
uan2 uan1 0.0416667
ing3 ing3 0.4545455
in2 ing3 0.0909091
ing2 ing3 0.0909091
eng3 ing3 0.0909091
ing4 ing3 0.0909091
ing1 ing3 0.1818182
eng2 eng2 0.4750000
eng3 eng2 0.0500000
en2 eng2 0.0250000
en1 eng2 0.0250000
en3 eng2 0.0250000
eng1 eng2 0.3000000
ang2 eng2 0.0250000
eng4 eng2 0.1000000
en2 in2 0.9560440
ing2 in2 0.0219780
in2 in2 0.0219780
ie4 ue4 1.0000000
un2 an1 0.0227273
ai4 an1 0.0227273
an4 an1 0.0681818
ian2 an1 0.0909091
an3 an1 0.3181818
an1 an1 0.4545455
ang1 an1 0.0227273
ia3 ia1 0.0101010
ia1 ia1 0.2828283
ia0 ia1 0.6161616
ia2 ia1 0.0606061
ia4 ia1 0.0303030
uang3 uang1 0.1250000
uan1 uang1 0.1250000
uang1 uang1 0.7500000
t h 0.0018727
f h 0.3726592
h h 0.6161049
zh h 0.0018727
j h 0.0018727
x h 0.0018727
k h 0.0018727
ch h 0.0018727
un2 un2 0.2500000
en2 un2 0.6944444
ian4 un2 0.0277778
un1 un2 0.0277778
q q 0.9937888
l q 0.0062112
o2 o2 0.9756098
e0 o2 0.0243902
iang3 4 1.0000000
k k 0.9797980
q k 0.0101010
h k 0.0101010
i3 ian4 0.0200000
ian3 ian4 0.0200000
ian1 ian4 0.0600000
ian4 ian4 0.8000000
uan4 ian4 0.0200000
an3 ian4 0.0200000
ian2 ian4 0.0600000
j j 0.7476341
zhe4yang4 j 0.0189274
zh j 0.2223975
s j 0.0015773
q j 0.0078864
b j 0.0015773
eng1 eng3 0.7500000
eng4 eng3 0.2500000
v3 v2 1.0000000
ing4 ing4 0.8800000
ing1 ing4 0.8800000
in4 ing4 0.0200000
ing2 ing4 0.0200000
ian3 ing4 0.0200000
e0 ing4 0.0200000
in1 ing4 0.0400000
an2 an4 0.0303030
uan4 an4 0.0101010
an1 an4 0.0404040
an4 an4 0.5454545
an3 an4 0.0505051
en3 an4 0.0303030
uan1 an4 0.2424242
ong3 an4 0.0202020
ang4 an4 0.0303030
un2 un4 0.0937500
un4 un4 0.3125000
en2 un4 0.5625000
in1 un4 0.0312500
k g 0.0025974
NULL g 0.0259740
j g 0.0025974
g g 0.9324675
h g 0.0103896
uo3 g 0.0259740
i2 i2 0.2919255
e4 i2 0.0062112
a4 i2 0.0124224
i4 i2 0.1863354
i1 i2 0.0248447
i3 i2 0.3788820
ei4 i2 0.0993789
3 er2 0.1666667
er3 er2 0.1666667
er2 er2 0.6666667
ei1 ui1 0.8832487
ui2 ui1 0.0558376
ui1 ui1 0.0456853
ui4 ui1 0.0152284
ai1 ai1 0.6000000
i1 ai1 0.0400000
uai4 ai1 0.0400000
ai3 ai1 0.0400000
ai2 ai1 0.1200000
ai4 ai1 0.1600000
sh sh 0.8625731
s sh 0.1257310
zh sh 0.0029240
x sh 0.0029240
NULL sh 0.0029240
ch sh 0.0029240
an4 an3 0.0476190
an3 an3 0.8952381
an1 an3 0.0095238
an2 an3 0.0285714
ang3 an3 0.0190476
a4 uo2 0.0357143
uo2 uo2 0.8214286
uo4 uo2 0.0714286
e2 uo2 0.0714286
ia1 ia4 0.0370370
ia4 ia4 0.9629630
ao4 ao3 0.0615385
ao3 ao3 0.6769231
e0 ao3 0.0153846
ao1 ao3 0.2307692
NULL ao3 0.0153846
ou3 ou2 0.2000000
ou2 ou2 0.2444444
ou1 ou2 0.5555556
iu2 iu2 0.9565217
uo2 iu2 0.0217391
ou4 iu2 0.0217391
ui2 ui2 0.6666667
ui4 ui2 0.2000000
ui1 ui2 0.1333333
u2 o1 0.3000000
o3 o1 0.2000000
o1 o1 0.3000000
a1 o1 0.2000000
eng1 en3 0.0370370
en1 en3 0.0370370
e2 en3 0.0185185
en4 en3 0.0185185
e3 en3 0.0185185
en2 en3 0.0370370
iang1 en3 0.0185185
en3 en3 0.8148148
u0 u0 1.0000000
ia1 ao4 0.0151515
ao1 ao4 0.0303030
o1 ao4 0.0151515
ao4 ao4 0.7878788
ao3 ao4 0.1515152
ai4 ai2 0.0961538
u4 ai2 0.0096154
ai3 ai2 0.0192308
ai2 ai2 0.8750000
a1 a3 0.3423423
o3 a3 0.3423423
a0 a3 0.0090090
e0 a3 0.4144144
a2 a3 0.0270270
a3 a3 0.1081081
e4 a3 0.0090090
a4 a3 0.0900901
ie1 ie2 0.0217391
ue2 ie2 0.6521739
ie2 ie2 0.3260870
ang3 ang1 0.0512821
ang4 ang1 0.1410256
ang2 ang1 0.0128205
ang1 ang1 0.7692308
ang0 ang1 0.0256410
iu3 iu4 0.0769231
iu4 iu4 0.9230769
e2 e1 0.2857143
iao4 e1 0.1428571
e1 e1 0.4285714
ang4 e1 0.1428571
w y 0.0019685
r y 0.1712598
y y 0.8208661
x y 0.0019685
j y 0.0019685
sh y 0.0019685
ing1 ing1 0.7333333
ing4 ing1 0.0500000
in1 ing1 0.0333333
ing3 ing1 0.1166667
i1 ing1 0.0166667
ing2 ing1 0.0166667
in3 ing1 0.0166667
in4 ing1 0.0166667
v3 v3 1.0000000
en0 en0 1.0000000
e0 ei4 0.0099010
i4 ei4 0.0198020
a4 ei4 0.2475248
ei4 ei4 0.7029703
o4 ei4 0.0099010
ei3 ei4 0.0099010
le0 niao3 0.8157895
uo uo 0.3333333
u4 uo 0.6666667
ei3 i3 0.1013514
i1 i3 0.0439189
ie3 i3 0.0439189
iang4 i3 0.0033784
i3 i3 0.3243243
i0 i3 0.4189189
i2 i3 0.0304054
i4 i3 0.0067568
ing1 i3 0.0033784
ei2 i3 0.0675676
ch t 0.0068027
d t 0.0068027
n t 0.0068027
y t 0.0068027
q t 0.0068027
t t 0.9659864
ong1 ong4 0.1086957
ong4 ong4 0.8043478
ong2 ong4 0.0652174
ong3 ong4 0.0217391
iao4 ue2 0.5937500
ue2 ue2 0.4062500
un2 u1 0.0144928
u3 u1 0.0289855
e2 u1 0.0289855
u4 u1 0.0289855
uo4 u1 0.0144928
u1 u1 0.8840580
d z 0.0062112
t z 0.0062112
s z 0.0062112
ch z 0.0062112
c z 0.0124224
z z 0.7763975
j z 0.0683230
zh z 0.1180124
ui4 ui3 0.2500000
ui3 ui3 0.7500000
l NULL 0.5555556
h NULL 0.0555556
y NULL 0.2777778
e4 NULL 0.1111111
ou4 ou3 0.0196078
ou1 ou3 0.0065359
o2 ou3 0.0032680
ong4 ou3 0.0065359
e3 ou3 0.0032680
ou2 ou3 0.0098039
ou3 ou3 0.5816993
wo3 ou3 0.3692810
en2 e2 0.0071942
o2 e2 0.0143885
e0 e2 0.0071942
e1 e2 0.0071942
en3 e2 0.0143885
ai1 e2 0.0071942
ie2 e2 0.0071942
e4 e2 0.0791367
wo3 e2 0.0287770
e3 e2 0.0143885
e2 e2 0.8201439
uo3 uo3 0.6444444
l uo3 0.2222222
uo1 uo3 0.0222222
e2 uo3 0.0222222
uo4 uo3 0.0888889
p p 0.9732143
b p 0.0267857
ang3 ang2 0.0117647
an2 ang2 0.0235294
eng2 ang2 0.0117647
ang2 ang2 0.9411765
ang4 ang2 0.0117647
ui2 ui4 0.0377358
ui1 ui4 0.0188679
ui3 ui4 0.0188679
ui4 ui4 0.8679245
ai4 ui4 0.0188679
en0 ui4 0.0188679
uo4 ui4 0.0188679
ia2 ia2 1.0000000
l er 1.0000000
u2 u3 0.0192308
u1 u3 0.0384615
u3 u3 0.7500000
ao2 u3 0.0384615
u4 u3 0.1538462
ai4 ai3 0.0857143
ai3 ai3 0.0857143
i3 ai3 0.4000000
ai2 ai3 0.0428571
ai1 ai3 0.3857143
ang3 ang3 0.6400000
ing2 ang3 0.0400000
ang1 ang3 0.0400000
an3 ang3 0.0400000
ang4 ang3 0.2400000
g n 0.0029586
l n 0.1508876
c n 0.0029586
n n 0.8106509
d n 0.0029586
ai4 n 0.0295858
ing3 ing2 0.0392157
en3 ing2 0.0196078
ing1 ing2 0.0588235
ing4 ing2 0.0392157
in2 ing2 0.1372549
iang3 ing2 0.0196078
in4 ing2 0.0196078
ing2 ing2 0.6666667
q l 0.0022523
l l 0.6779279
j l 0.0045045
r l 0.0968468
n l 0.2184685
zh s 0.0042017
l s 0.0042017
s s 0.1218487
sh s 0.8487395
x s 0.0210084
u3 u2 0.2222222
u4 u2 0.0793651
i3 u2 0.0158730
u2 u2 0.6031746
o3 u2 0.0634921
u1 u2 0.0158730
ong4 ong3 0.0210526
ong2 ong3 0.0105263
ong3 ong3 0.2421053
ao4 ong3 0.0105263
en3 ong3 0.7157895
en2 en2 0.7457627
un2 en2 0.0084746
eng2 en2 0.2457627
uan3 uang2 0.5000000
uang4 uang2 0.5000000
uang1 uang2 0.5000000
e0 ou1 0.0322581
ong1 ou1 0.0322581
ou2 ou1 0.0322581
ou4 ou1 0.1612903
ou1 ou1 0.5483871
ou3 ou1 0.1935484
e4 ei3 0.0222222
ei3 ei3 0.4444444
ao3 ei3 0.3555556
ou4 ei3 0.0222222
ei2 ei3 0.0666667
ei4 ei3 0.0888889
ou3 o0 1.0000000
i4 i0 0.0952381
i2 i0 0.1428571
i3 i0 0.3809524
i0 i0 0.3333333
i1 i0 0.0476190
a3 a4 0.0897436
a4 a4 0.6794872
NULL a4 0.1666667
a1 a4 0.0512821
e3 a4 0.0128205
ian2 ian1 0.0222222
ian1 ian1 0.8888889
ie1 ian1 0.0222222
ian3 ian1 0.0444444
iang4 ian1 0.0222222
a0 ie1 0.3529412
ie1 ie1 0.1764706
a1 ie1 0.0196078
i3 ie1 0.0196078
i2 ie1 0.3921569
e0 ie1 0.0196078
ie2 ie1 0.0196078
ao1 ao2 0.0625000
ao4 ao2 0.0312500
ao3 ao2 0.6875000
ao2 ao2 0.1875000
uo1 ao2 0.0312500
ei3 ei2 0.0238095
ui4 ei2 0.0238095
ei4 ei2 0.0476190
u4 ei2 0.0119048
ei2 ei2 0.0476190
e4 ei2 0.0119048
ui2 ei2 0.5000000
ei1 ei2 0.3571429
iu4 ou4 0.1447368
ue1 ou4 0.0131579
e4 ou4 0.2105263
ou4 ou4 0.4473684
ou1 ou4 0.1184211
ou3 ou4 0.0657895
en1 en1 0.5411765
eng1 en1 0.3411765
in1 en1 0.0588235
en4 en1 0.0470588
en3 en1 0.0117647
ei1 en1 0.0117647
ue4 uan4 0.0454545
uan2 uan4 0.2727273
uan4 uan4 0.6363636
uan1 uan4 0.0454545
ing2 iang2 0.0357143
iang2 iang2 0.9642857
ai2 uai4 0.0277778
uai4 uai4 0.9722222
un2 un1 0.0666667
en1 un1 0.8000000
un4 un1 0.0666667
un1 un1 0.0666667
in1 un1 0.0666667
iao1 iao3 0.0133333
iao3 iao3 0.0666667
ue2 iao3 0.8266667
u4 iao3 0.0400000
ia4 iao3 0.0133333
ao4 iao3 0.0400000
x x 0.8541033
r x 0.0030395
h x 0.0030395
s x 0.0030395
q x 0.0030395
sh x 0.1276596
c x 0.0060790
iu3 iu3 0.7500000
iu4 iu3 0.2000000
a3 iu3 0.0500000
ai4 ai4 0.8557692
ie2 ai4 0.0096154
ai1 ai4 0.0192308
ai2 ai4 0.0961538
ai3 ai4 0.0192308
ue1 ue1 0.3333333
i4 ue1 0.3333333
ue4 ue1 0.3333333
uo4 ao1 0.0833333
ao1 ao1 0.4166667
ao4 ao1 0.1666667
ao3 ao1 0.2500000
ao2 ao1 0.0833333
ue4 ue4 0.6666667
ue1 ue4 0.1111111
u2 ue4 0.1111111
u1 ue4 0.1111111
